%YAML:1.0
---
opencv_ml_svm:
   format: 3
   svmType: C_SVC
   kernel:
      type: LINEAR
   C: 2.6699999999999999e+00
   term_criteria: { epsilon:1.1920928955078125e-07, iterations:1000 }
   var_count: 64
   class_count: 10
   class_labels: !!opencv-matrix
      rows: 10
      cols: 1
      dt: i
      data: [ 0, 1, 2, 3, 4, 5, 6, 7, 8, 9 ]
   sv_total: 45
   support_vectors:
      - [ 4.45566542e-07, 1.23785852e-04, 5.45954099e-05, 5.88985604e-05,
          -4.10836983e-05, 0., 0., 1.19571348e-06, 1.80850926e-04,
          2.38405759e-04, -1.26589061e-04, -3.63653817e-05,
          -5.09487581e-05, -7.60925832e-05, -1.51117820e-05,
          -6.55027106e-05, 1.89804487e-04, 2.81829816e-05,
          5.30002126e-06, 3.51618041e-06, -2.08463962e-06,
          -1.36546068e-05, 4.42505625e-05, 2.91897522e-05,
          2.40039753e-05, 6.45954133e-05, -2.80490513e-05,
          -4.25762992e-05, -2.94859683e-06, -1.27631225e-07,
          5.40272731e-06, 2.35878288e-05, -5.78229919e-05,
          -4.80329036e-05, -7.18719821e-05, -1.08896529e-04,
          4.08045016e-05, 7.68739337e-05, 8.84530018e-05, 4.67728314e-05,
          -2.15785607e-04, -5.66286071e-05, 4.53549001e-05,
          4.43209683e-05, 6.17388650e-05, 1.74459041e-04, 1.01061865e-04,
          6.35126780e-05, 3.51731636e-04, 2.96775135e-04, 1.15741335e-04,
          1.57610979e-04, -5.15204410e-05, -1.21871832e-04,
          -2.65544895e-05, -4.83985787e-05, -1.55877031e-04,
          -1.70617801e-04, 1.30917237e-04, -4.08202177e-05,
          1.80024526e-05, -2.79970682e-05, 1.80739444e-05,
          9.20314415e-06 ]
      - [ 1.62235563e-04, 1.07134627e-04, 3.42553030e-05, 1.43544275e-05,
          1.15702314e-05, -8.35816682e-05, 3.76936150e-05,
          5.12507067e-05, 1.02368620e-04, 5.96961763e-05,
          -3.81957798e-05, -1.27645064e-04, -1.69021980e-04,
          -1.82380740e-04, -7.26911094e-05, -8.37336188e-07,
          -4.44493926e-05, 2.01945113e-05, 1.84015353e-05,
          -3.82701546e-05, -3.89234083e-05, -1.17461037e-04,
          -1.14171788e-04, -4.36733462e-05, 1.02893151e-04,
          -5.27045268e-05, -3.36912781e-05, -6.05095920e-05,
          -1.77475031e-05, 2.60726119e-06, 2.85327333e-05,
          1.34370212e-05, -9.06793721e-05, -7.43155761e-05,
          -1.30751177e-05, 7.27770384e-05, -5.86398210e-06,
          1.44987265e-04, -1.00443896e-04, -4.78961229e-05,
          -1.65183039e-04, 2.79677006e-05, 1.13672259e-05,
          9.55791984e-05, 5.46809933e-05, 6.13272787e-05, 9.08991424e-05,
          -1.44720630e-04, 2.40807538e-04, 1.64559460e-04,
          1.08517925e-04, 5.47808231e-05, -3.16335354e-05,
          -1.92842766e-04, -1.26160012e-04, 2.83045438e-06,
          2.07745237e-04, 2.06041732e-05, -5.51546145e-05,
          -6.35467804e-05, -3.63038416e-05, -1.01451642e-05,
          -1.04263727e-05, 1.35095470e-04 ]
      - [ 1.64295066e-04, 2.28434983e-05, -1.77529073e-05,
          -2.01025847e-04, -5.08348021e-05, -4.84313823e-05,
          5.52000665e-06, 1.72380817e-06, 7.92280698e-05, 5.56870191e-06,
          -8.59790161e-05, -1.55571834e-04, -1.34969203e-04,
          -2.91462464e-04, -1.52604072e-04, 7.13420959e-05,
          -1.13711394e-04, 2.47030275e-05, 4.93260131e-06,
          1.04633382e-05, -2.18106943e-05, -1.21640387e-05,
          -8.87220376e-05, 1.21148558e-04, -1.79290018e-05,
          6.49993381e-05, 4.35425754e-05, 2.11788865e-05,
          -1.50647147e-05, -2.41452035e-05, -2.10087455e-05,
          -2.68935964e-05, -1.97680729e-05, -2.21110473e-04,
          -1.16454343e-04, 3.63774925e-05, 1.51115193e-04,
          6.57545534e-05, -1.20764653e-05, 2.58324180e-05,
          -9.82451311e-05, 1.44275473e-04, -1.65086822e-05,
          -7.14256821e-05, 3.36647718e-05, 1.21659090e-04,
          1.99849732e-04, 7.29201565e-05, 1.95817527e-04, 7.43422934e-05,
          4.85058372e-05, 6.51769733e-05, 4.18837481e-05,
          -7.82320330e-06, -1.32473360e-04, 7.01383688e-05,
          1.26916682e-04, 8.17427936e-05, -9.07257272e-05,
          3.51491108e-05, -5.40852452e-05, -1.12748297e-04,
          -4.73646651e-05, 1.33022520e-04 ]
      - [ 2.65409799e-05, 1.32256246e-05, 1.73410263e-05, 1.26879546e-04,
          -1.96230230e-05, -3.59519800e-05, -8.13986262e-05,
          -8.26429241e-05, 1.03339327e-04, 5.17454064e-05,
          5.14217281e-05, 2.56158619e-05, -3.30637636e-06,
          8.81292817e-06, 1.18976050e-05, 8.64450849e-05, 7.12389301e-05,
          1.02304348e-05, 9.37582445e-06, -3.17133854e-05,
          -1.17496074e-05, -2.37365348e-05, 2.90542321e-05,
          -1.70483672e-05, 7.16551294e-05, -4.14199385e-05,
          -3.80025667e-05, -4.27511186e-05, -3.42565945e-05,
          -2.84344478e-05, -1.08149234e-05, -1.09724569e-05,
          -1.48716455e-04, -1.63922712e-04, -6.83001563e-05,
          -1.03670514e-04, 3.28762580e-05, 1.36433708e-04,
          1.42709148e-04, -3.11549979e-06, -1.57495349e-04,
          -7.74113287e-05, 1.04325976e-04, 8.17549590e-05,
          4.39980467e-05, 9.61999976e-05, 1.61788994e-04, 1.11630861e-05,
          1.49494765e-04, 2.20824877e-04, -2.42707642e-06,
          4.52427776e-05, 4.80789859e-05, -5.77543360e-05,
          -3.25714973e-05, -1.94043832e-06, -2.36902706e-05,
          -7.65361910e-05, 2.04454409e-05, 7.05840066e-05,
          -4.36739392e-05, -1.39896118e-04, -1.38237723e-04,
          8.46672920e-05 ]
      - [ 2.56074873e-05, 7.48540915e-05, 1.44072852e-04, 2.37282711e-05,
          7.65701407e-05, -4.60792544e-05, -2.62213125e-05,
          -5.75674276e-05, 6.80557350e-05, 2.14190834e-04,
          6.22289299e-05, -1.87648460e-04, -3.93904338e-06,
          -1.39795258e-04, -1.77277223e-04, -7.78437316e-05,
          -1.72399377e-05, 1.54036854e-04, 1.39310869e-04,
          6.54271425e-05, 3.04909299e-05, -3.01003024e-06,
          4.18223717e-05, 2.24863670e-05, 9.03856344e-05, 2.13122676e-05,
          1.08358399e-04, -6.62112579e-05, 2.08092042e-05,
          -3.92101974e-05, 4.08482811e-05, -4.78245274e-05,
          7.76377492e-05, 2.07715184e-05, -7.98670408e-06,
          -1.63374454e-04, -1.54496360e-04, 9.59039971e-06,
          8.44644528e-05, 1.36365226e-04, -2.20646198e-05,
          5.69931071e-05, -1.31578039e-04, -1.62348966e-04,
          -9.19110971e-05, 1.45228536e-04, 8.31999641e-05,
          1.55444999e-04, -1.51232634e-05, 1.06874279e-04,
          1.25906969e-04, 2.09791106e-05, 4.86574827e-05,
          -2.68483891e-05, -1.62080396e-04, -4.69345105e-05,
          1.50873922e-04, -2.18182522e-05, 1.36980534e-05,
          2.23453826e-05, 4.66828642e-05, -6.28985727e-05,
          -1.34197195e-04, -6.20903229e-05 ]
      - [ -2.22181159e-04, -5.77348728e-05, 7.47379381e-05,
          1.55649745e-04, 1.06401756e-04, -5.41788779e-07,
          -9.04764747e-05, -5.28012229e-08, 5.07453406e-05,
          6.31953444e-05, -5.90375203e-05, -1.22787114e-05,
          3.55504490e-05, 5.86321803e-05, 1.79879917e-05, 1.59892679e-05,
          6.53071475e-05, 5.80293163e-05, 6.78134602e-05, 4.57049464e-05,
          1.32507366e-05, -2.09682203e-05, 3.79985613e-05,
          1.09630193e-04, 2.56437647e-06, 1.27223284e-05,
          -1.88595604e-05, -1.48484696e-06, 2.12095506e-06, 0.,
          4.47336934e-05, -1.22780839e-04, 5.25002251e-05,
          -4.95003078e-05, -1.55052519e-04, -1.43828511e-04,
          -1.35200899e-04, 9.62737759e-05, 1.90264793e-04,
          1.78086324e-04, -1.08314214e-06, -1.80400399e-04,
          2.00107443e-05, -1.87658061e-05, 5.80236629e-05,
          1.52091423e-04, 1.72990040e-04, 1.19543125e-04, 1.93889835e-04,
          1.00339057e-04, 6.77246717e-05, 1.76314370e-05, 1.60705182e-04,
          -5.34825085e-05, -2.93425601e-05, 3.22816192e-07,
          4.55018271e-05, -3.19253195e-05, 5.45034454e-05,
          -1.26645900e-04, -2.43622126e-05, -4.15525828e-05,
          1.24370194e-06, 7.08128864e-05 ]
      - [ 2.38240798e-04, 2.02453411e-05, -1.39719305e-05,
          -6.91326277e-05, -1.12855167e-04, -2.38389002e-05,
          -1.95538341e-05, 4.54721931e-06, 1.29410939e-04,
          4.09143722e-05, -3.53982396e-05, -1.08221182e-04,
          -1.29433945e-04, -1.36206363e-05, 2.23151328e-05,
          1.68838451e-04, 7.21438391e-06, 1.36316139e-05, 2.26817083e-05,
          2.39991859e-05, 9.10966355e-06, -7.06678547e-05,
          1.29414229e-05, 9.69517077e-06, -1.48074764e-06,
          4.05315295e-05, 1.98757389e-05, -2.59462013e-05,
          -2.50265930e-06, -2.39924503e-07, 2.67187006e-05,
          3.52085635e-06, 4.27478190e-05, -1.08483458e-04,
          -6.18715349e-05, -8.69751602e-05, -6.67461863e-05,
          1.29435430e-04, 1.41752782e-04, 9.37783116e-05,
          -4.97065084e-05, 1.61379940e-05, 8.15876501e-06,
          -8.46012063e-06, 3.51389572e-05, -1.39129488e-05,
          1.08563690e-04, -3.77985452e-05, 1.05707280e-04,
          1.18209755e-04, 1.13394817e-04, 1.23271573e-04, 3.43389111e-05,
          -7.42102930e-05, -8.17807304e-05, -5.12812076e-05,
          -9.74929935e-05, -2.44345749e-04, 2.40092995e-05,
          2.46602547e-04, 1.06890962e-04, -2.11774204e-05,
          -7.15756032e-05, 3.53727883e-05 ]
      - [ 1.04810832e-04, 9.61973346e-05, 7.63372009e-05,
          -7.35898993e-06, -3.49474212e-05, -1.28184081e-04,
          -2.07440171e-04, -4.93106563e-05, 1.23207283e-05,
          1.77546026e-04, -1.00585879e-04, -9.57129396e-06,
          -4.94667656e-05, -1.25496532e-04, -1.40825185e-04,
          1.49475618e-05, -4.67006503e-05, -1.09398525e-05,
          6.15720419e-05, 2.85508977e-05, -4.03289923e-05,
          -8.69294183e-07, -6.30564755e-05, 3.51535309e-05,
          1.73587287e-05, 1.18833952e-04, 1.19560507e-04, 5.73598709e-06,
          -6.79123405e-05, -6.04118468e-05, -5.10490565e-08,
          2.90485368e-05, -1.75393616e-05, -1.63096178e-04,
          -1.19139833e-04, -1.01925485e-04, -9.01449457e-05,
          4.12812842e-05, 1.00144076e-04, 1.10065528e-04, 9.96935000e-07,
          1.69149935e-05, -9.72211419e-05, -5.57160320e-06,
          1.15263820e-05, 5.14279745e-05, 9.26902576e-05,
          -1.77855881e-07, 2.45401810e-04, 1.53861489e-04,
          8.56296756e-05, 3.52674942e-05, -4.14729438e-05,
          -2.20668608e-05, -9.62175909e-05, -1.56509181e-04,
          1.14077891e-04, -4.84448174e-05, -1.28969361e-04,
          -3.15342622e-05, -1.16148287e-04, -9.89934488e-05,
          -1.60213058e-05, 1.60350755e-04 ]
      - [ 1.86984282e-04, 2.33540209e-06, 4.49435793e-05,
          -8.57501363e-05, -1.38132236e-04, -1.06073778e-04,
          -1.39514465e-04, -2.27865588e-04, 1.28887303e-04,
          -5.70712727e-05, -2.05331977e-04, -3.37536076e-05,
          -2.72221077e-04, -1.38221760e-04, -2.49861594e-04,
          1.51710934e-04, -5.66137896e-05, 7.84766889e-05,
          -1.91271756e-05, -2.66209845e-05, -1.68193328e-05,
          -2.86726390e-05, 1.26997169e-04, -6.49261165e-06,
          4.14939204e-05, 8.34542079e-05, 6.36658660e-05,
          -1.24964117e-05, -2.78320258e-05, 1.02411343e-06,
          -1.22121755e-05, -1.27933254e-05, -1.75258901e-04,
          -1.74985413e-04, -1.39507014e-04, -1.85315730e-04,
          -4.63235447e-05, 1.53826724e-04, 2.09602149e-04,
          4.17983902e-05, -1.29101158e-04, 1.87055732e-04,
          1.47056257e-04, -1.54141424e-04, -5.19955483e-06,
          1.86929847e-05, 1.94317443e-04, 9.97424868e-05, 1.85910816e-04,
          2.13417821e-04, 9.13431068e-05, 6.40178332e-05, 7.69226608e-05,
          1.30260005e-05, -2.51339352e-05, 4.04332386e-05,
          -1.10987712e-04, -8.01490896e-05, 1.04768158e-04,
          2.72279663e-04, 3.11398071e-06, -2.17340494e-04,
          -2.02510200e-04, -5.80196465e-05 ]
      - [ 2.40270601e-04, 2.20439382e-04, 1.07194057e-04, 3.15259786e-05,
          3.54162730e-05, 1.09025190e-04, -1.79477138e-05,
          -5.18540082e-06, -1.74562101e-05, -2.56430067e-05,
          1.52521447e-04, -8.87958449e-05, 1.14290124e-04,
          -7.37198861e-05, -1.88674370e-04, 3.14117933e-04,
          -4.88948972e-05, -6.98516524e-05, -6.28702837e-05,
          -3.35769837e-05, -4.95670283e-05, -7.52847554e-05,
          3.03074994e-05, -2.47062108e-05, -1.34718794e-04,
          5.00929173e-06, -4.15294053e-05, 2.93267549e-05,
          -3.85830426e-05, -1.23872655e-06, -8.70168890e-07,
          -3.36769972e-07, -3.42457148e-04, -4.23946840e-05,
          7.73763459e-05, -2.44184266e-05, -8.58768835e-05,
          4.62148364e-06, -1.06514693e-04, -1.04108703e-05,
          9.90897970e-05, 3.51795788e-05, -2.07690828e-05,
          4.59327057e-05, -2.48316519e-05, -1.00522040e-04,
          -1.61475455e-05, -9.61426413e-05, 1.82566640e-04,
          -1.99510439e-04, 8.15712792e-06, -1.43577621e-04,
          -2.78925523e-04, 2.75580733e-05, -7.89302612e-06,
          4.68711223e-05, 1.52089400e-04, -2.14222498e-04,
          -1.15790484e-04, -1.78394966e-05, -1.45143087e-04,
          -2.82140478e-04, -6.61287777e-05, 1.99730610e-04 ]
      - [ 1.51171058e-04, 8.21960057e-05, -9.50577087e-05,
          -1.71109074e-04, -1.46847102e-04, 1.63272289e-05,
          -1.19674050e-05, -1.69651901e-06, -2.26896418e-06,
          -5.83992660e-05, 1.11114721e-04, -3.16982841e-05,
          -7.99342379e-05, -1.89634971e-04, -1.59606177e-04,
          1.58516370e-04, -5.20627436e-05, -7.16991977e-08,
          -4.23575500e-07, -2.34946835e-08, 2.65446056e-06,
          1.10322344e-05, -3.91119812e-07, -5.95100355e-05,
          -1.63452678e-05, -5.16278087e-05, 2.76267547e-05,
          3.97326621e-05, 4.83367467e-06, -3.54893785e-07, 0.,
          -1.28733660e-07, 9.42439729e-05, -7.19984091e-05,
          2.97829320e-05, -2.07117391e-05, 2.42839224e-06,
          -1.65473277e-04, -7.12172041e-05, 9.21942483e-05,
          1.65357938e-04, 8.91834407e-06, -5.60824155e-05,
          7.67118308e-06, 5.46799856e-06, -1.48923182e-05,
          -5.10829086e-05, 4.92735890e-05, -4.34662361e-05,
          -1.38559451e-04, -1.08705302e-04, -5.07144750e-06,
          5.63036847e-05, 1.10877379e-04, 7.76055967e-05,
          -3.42187268e-05, 1.65177131e-04, -1.90409934e-04,
          -1.81914800e-06, 3.97497861e-05, -2.89034542e-05,
          8.29287183e-06, -9.67051019e-05, -1.01689060e-04 ]
      - [ 3.84455825e-06, -2.48006781e-05, -1.32800997e-05,
          -2.34802610e-05, -7.96891763e-05, -1.44122067e-04,
          -2.56272615e-04, -2.24479983e-04, -9.17212383e-05,
          -6.20247592e-05, 2.35475061e-04, 5.64167885e-06,
          1.15751027e-04, 2.14497602e-04, 3.94047966e-05, 2.42691123e-04,
          -1.70724452e-04, -8.86460953e-07, -4.98361214e-06,
          -1.95391796e-04, -1.12978494e-04, -5.14877247e-05,
          -1.51178436e-04, -1.31693247e-04, 1.76425645e-04,
          -6.85890427e-07, -1.73349268e-04, -1.55813963e-04,
          -5.72746358e-05, -8.84120141e-07, -1.57791362e-06,
          -1.52003213e-06, -1.56411654e-04, -1.86063742e-04,
          -5.20192880e-05, -3.00797954e-04, -4.46738486e-05,
          4.72994179e-05, -4.45420255e-06, 2.27807614e-04,
          1.96426350e-04, 5.02619014e-06, 9.42835613e-05,
          -1.73801309e-05, 4.94731648e-05, -1.23375530e-05,
          -2.37456925e-06, 2.63049187e-05, -1.32097703e-04,
          -2.56352272e-04, -2.74261489e-04, -1.63233024e-04,
          6.25060181e-07, 1.41363780e-04, 1.44997859e-04, 2.57622247e-04,
          8.76011400e-05, -1.97288668e-04, 1.46480343e-05,
          -4.92323852e-06, -2.45592120e-04, -1.42387682e-04,
          -2.60656088e-04, 8.78112405e-05 ]
      - [ 2.73241949e-05, 7.58226743e-05, -3.78083569e-05,
          -3.26199370e-05, 4.64211407e-05, 6.68411594e-05,
          -1.76015474e-05, -1.32867890e-05, -1.02415885e-04,
          -1.88802169e-05, 1.07826992e-04, 2.96283758e-07,
          4.25496910e-05, 5.36982989e-05, -1.56791037e-04,
          -6.65787302e-05, -9.50123431e-05, -1.96120959e-06,
          -4.62727940e-06, -3.81292102e-06, 6.61767245e-08,
          1.54200609e-06, -1.99062761e-05, -6.37842868e-06,
          1.02816084e-05, 1.18160697e-05, 1.09288101e-06,
          -8.10549136e-06, 0., 8.82356304e-08, 0., -5.31379385e-07,
          1.15542593e-04, 6.91035666e-06, 6.01195752e-05,
          -4.77767353e-05, -1.25428720e-04, -8.44863680e-05,
          -5.23271556e-05, 1.42815436e-04, 1.31581517e-04,
          -1.85906083e-05, -1.36109360e-04, -9.86969608e-05,
          -1.95170687e-05, 4.15100794e-06, -5.98924053e-05,
          3.97405092e-05, -1.83208846e-04, -1.79377559e-04,
          2.41953694e-05, -8.73552708e-05, -2.57674510e-05,
          -8.57538635e-06, 6.45646433e-05, 5.89186238e-05,
          2.53846811e-04, -1.09913271e-04, -1.00724894e-04,
          3.56231612e-05, -9.06839632e-05, -2.67784835e-05,
          4.03946797e-06, -2.21287264e-04 ]
      - [ -1.41885568e-04, -1.20183386e-05, 1.95975997e-04,
          3.27499074e-05, -2.99230055e-06, -2.77833878e-05, 0.,
          -1.68253428e-05, -6.22384323e-06, -8.10552956e-06,
          1.63515098e-04, 5.36672133e-06, 4.78304673e-06, 1.09786079e-05,
          3.04303035e-06, 2.22215313e-04, -4.52338900e-05,
          -2.76882957e-07, -4.51489313e-06, -7.99305781e-06,
          1.09044066e-07, 6.43830276e-07, 1.30579647e-05,
          -4.24176724e-05, 3.20077452e-05, 1.31757106e-05,
          -3.99507087e-07, -9.24012329e-06, -2.69369571e-06,
          1.45392093e-07, -1.50311189e-06, -3.33628554e-06,
          -9.25032000e-05, 3.08379604e-05, 4.74403969e-05,
          -3.64684383e-05, -9.11544412e-05, -1.97680187e-04,
          -8.19256602e-05, 2.97896884e-04, 3.12681048e-04,
          -3.08097835e-04, -2.61365876e-05, -4.72312013e-06,
          1.93190299e-05, 1.23578193e-05, 9.54400184e-06, 2.71879094e-06,
          9.68926761e-05, -1.46766006e-05, 8.28510110e-06,
          -4.47797674e-06, -4.53167013e-05, -6.44520987e-05,
          -4.93092557e-05, 2.50156270e-04, 1.91693834e-04,
          -9.37054283e-05, -2.22582341e-04, -5.93030054e-05,
          -1.27197171e-04, 6.33492255e-06, -2.01512630e-05,
          -6.06817084e-05 ]
      - [ 2.40781257e-04, 2.89772561e-05, -2.50276225e-05,
          -2.51981022e-04, -1.39097800e-04, 1.36498484e-05,
          5.40443466e-07, -2.34311847e-06, -2.41908965e-05,
          -5.24394090e-05, 1.88689519e-05, -3.21661471e-04,
          -1.58510069e-04, -3.50677988e-06, -8.24686649e-05,
          3.26688139e-04, 1.08227405e-05, 0., 0., 0., 1.46632360e-07,
          2.54356087e-06, 1.53720757e-05, -4.23423662e-05,
          3.51596464e-05, -4.21113782e-06, 1.74801153e-05, 0., 0.,
          1.95509813e-07, -2.37905255e-07, -4.27052981e-07,
          -7.33017077e-05, -2.03537347e-05, -3.50697192e-05,
          -2.11024380e-04, -6.05147361e-05, -3.54106633e-05,
          6.05331588e-05, 3.53986034e-05, 1.17121126e-04, 3.64963525e-05,
          1.60343061e-05, 2.29943271e-05, -4.25903090e-05,
          -2.08389873e-04, -4.71283165e-05, -5.55411498e-05,
          -1.92651896e-05, -7.11930115e-05, -1.21583616e-04,
          2.18068590e-06, 1.04204291e-05, 6.88285072e-05, 1.00692187e-05,
          -1.09626642e-04, -1.65039528e-04, -1.87584606e-04,
          -5.54760009e-05, 1.10000634e-04, 7.47817103e-05,
          -2.40512381e-05, 6.01131287e-05, 9.04831977e-05 ]
      - [ 1.82102769e-04, 1.05388004e-04, 7.17146395e-06,
          -2.39004032e-04, 1.68062597e-05, 6.63925239e-05,
          -7.11279354e-05, -8.30389836e-05, -2.47659700e-05,
          -8.06925818e-05, 1.33816211e-04, -4.79977862e-05,
          1.52302513e-04, 2.22933377e-04, -1.27000661e-04,
          6.18127524e-05, -7.00894379e-05, 0., 0., 0., 9.39384179e-08,
          2.21169444e-06, 1.35171476e-05, -1.98039834e-06,
          3.08615054e-05, 1.43714296e-05, 1.32563046e-05, 0., 0.,
          1.25251219e-07, 0., 0., -5.72003082e-05, -1.59622170e-04,
          -2.03985337e-07, -2.55793362e-04, -2.77549436e-04,
          -1.61369884e-04, -5.11322978e-05, 2.31530168e-04,
          9.49936148e-05, -3.77241922e-05, -1.02095844e-04,
          -2.49641271e-05, -6.07533329e-05, -4.66216225e-05,
          -7.50605395e-05, -2.84418948e-05, -1.70855074e-05,
          -5.49509678e-05, 2.82847177e-05, -2.26640423e-05,
          2.30012265e-05, 1.54233130e-04, -1.83417622e-04,
          7.94477382e-05, 1.96973095e-04, -1.61306147e-04,
          -1.93682747e-04, 9.47214721e-05, -2.62923946e-04,
          -3.85872736e-05, -1.31218025e-04, 1.44945852e-05 ]
      - [ 1.00783829e-04, 6.08277369e-05, -7.51650005e-05,
          -6.10248717e-05, -2.22305302e-04, -5.66601593e-05,
          -1.28509826e-04, -4.01806137e-05, -2.21674956e-04,
          -2.47439486e-04, 1.62756041e-04, -4.90611055e-05,
          8.21106914e-06, 1.03825412e-04, -1.00847887e-04,
          3.69208487e-04, -1.74948073e-04, -1.70593939e-08,
          -4.20194567e-07, 0., -2.24609539e-06, 2.63311705e-07,
          6.53753159e-05, -5.27058364e-06, 1.55068294e-04,
          5.25275282e-05, 1.80433381e-05, -6.46147191e-06,
          -1.16149022e-05, -8.83544487e-07, -5.61212573e-07,
          -1.04403455e-06, -2.61072892e-05, 4.46274680e-05,
          -2.47109769e-04, -3.84364423e-04, -1.13319336e-04,
          -1.68322571e-04, 1.63105105e-05, 1.61244825e-04,
          2.17387060e-04, 2.01145245e-04, 5.45684670e-05,
          -5.46541669e-05, -1.71406908e-04, -1.87045924e-04,
          -9.13015028e-05, -3.05037502e-05, -3.65775457e-04,
          -1.56275768e-04, -7.37908267e-05, -6.78211945e-05,
          9.42470360e-05, 1.38289412e-04, -4.49568834e-05,
          9.11091047e-05, -3.62187202e-05, -1.95535060e-04,
          -1.06531425e-05, 1.54934038e-04, 1.21083060e-04,
          -8.81476662e-05, -1.03167782e-04, -1.52495631e-04 ]
      - [ -1.08735025e-04, -3.97792988e-04, -5.80410589e-04,
          -3.73979536e-04, -1.85608966e-04, -1.11867121e-04,
          -4.09442073e-05, 1.09753993e-04, -1.32918474e-04,
          -2.49685487e-04, 1.37512252e-04, -8.82725653e-05,
          -3.27455462e-04, -3.86983767e-04, -3.72606621e-04,
          -9.17190991e-05, -4.40726435e-05, -3.83676466e-04,
          -2.62684829e-04, 2.03798234e-04, 7.17158371e-04,
          5.86026232e-04, 3.56040429e-04, 5.94780780e-04, 1.17066797e-04,
          1.60611307e-04, 4.26999250e-05, 2.65874347e-04, 2.97053251e-04,
          2.62299523e-04, 5.63488429e-05, -1.08591676e-05,
          5.91681281e-04, -1.63725868e-04, -1.91304105e-04,
          6.34554366e-04, 2.88081850e-04, 3.77827178e-04, 3.70801936e-05,
          4.26990533e-04, 1.35291688e-04, -5.73611287e-05,
          1.17074014e-04, -2.56638741e-04, 2.03703181e-04,
          2.84329086e-04, 3.72893497e-04, 1.44868810e-03,
          -7.59732910e-04, -4.10439330e-04, -5.09051082e-04,
          -5.02251460e-05, 7.27181032e-05, -1.91824569e-04,
          -4.32190951e-04, -7.38137984e-04, -8.40251814e-05,
          1.04152408e-04, -1.03099090e-04, -1.57942006e-04,
          2.44688727e-05, -3.20869294e-04, -5.14027488e-04,
          -7.44029821e-05 ]
      - [ -1.96457113e-04, -1.86577789e-04, -1.28100455e-05,
          1.20362049e-04, -2.64192549e-05, -8.20853238e-05,
          -1.86998688e-04, -1.61713979e-04, -1.09373075e-04,
          2.99053791e-05, 7.18193769e-05, 2.34323365e-04, 3.22739274e-04,
          4.09231754e-04, 3.06994683e-04, -7.18290466e-05,
          7.59630530e-06, -3.54057102e-06, 1.00757701e-04,
          -1.35746872e-04, -1.55306450e-04, 1.85126861e-04,
          3.20620857e-05, -1.56415452e-04, 9.33674819e-05,
          -1.92540519e-05, -8.39071527e-06, -1.68239658e-05,
          1.35040493e-04, 2.27835826e-05, 1.07762717e-05,
          -1.39817212e-06, 5.00713868e-05, -9.67262094e-05,
          -1.37430339e-04, -4.28416242e-05, 5.45652329e-05,
          9.11658135e-05, 5.24268871e-05, 1.16808194e-04, 5.86303177e-05,
          9.87945023e-05, -7.15342003e-06, 2.41843707e-04,
          9.37862642e-05, 9.39026650e-05, 4.38846073e-05,
          -3.10230898e-05, -2.84211364e-05, 7.63372809e-05,
          -3.77544093e-05, 4.12935042e-05, 7.83733121e-05,
          1.31350200e-04, 1.11835026e-04, 8.08999393e-05,
          -1.97616857e-04, -1.39684984e-04, 3.53170253e-05,
          -6.05127061e-05, 1.07422929e-04, 2.68450931e-05,
          -2.59420514e-04, -1.89722268e-04 ]
      - [ -1.57251066e-04, -1.15203955e-04, -1.88306567e-05,
          6.18274935e-05, 9.50032481e-05, 3.84707491e-05,
          -1.91660802e-05, 3.41729537e-05, -6.86855201e-05,
          4.58421673e-05, 7.50684558e-06, 2.57889019e-06, 9.50490867e-05,
          9.87005697e-05, -8.35053797e-05, -2.11392355e-04,
          -2.68496315e-05, -8.99412044e-05, -5.07315381e-05,
          6.70808513e-05, 8.73923491e-05, 6.32216688e-05, 1.35805298e-04,
          1.57767849e-04, -2.61376626e-05, -9.72924245e-05,
          2.68561216e-05, -5.32853701e-05, 3.30296025e-05,
          -2.56432327e-06, 4.30862428e-06, -2.19983776e-05,
          2.66468793e-04, 1.56517097e-04, 7.67641977e-05,
          -3.06276233e-05, -5.98913539e-05, -3.10781361e-05,
          -5.05568687e-06, 1.56227761e-04, 1.92876469e-04,
          4.16301264e-05, -1.18741737e-04, -2.57910608e-04,
          -4.35491165e-05, 5.00998176e-05, 7.24983838e-05,
          2.38677399e-04, -1.47355982e-04, -6.46427507e-05,
          -8.39491768e-05, 1.52311004e-05, 7.86925375e-05,
          -5.12827792e-05, -9.59975878e-05, -1.49929780e-04,
          -6.12263902e-05, 1.31431341e-04, 4.24117716e-05,
          3.32755226e-05, -8.30493536e-06, 3.84815285e-05,
          -1.08120112e-04, -1.30109489e-04 ]
      - [ -2.71916098e-04, -1.53503788e-04, -1.84711780e-06,
          1.75674752e-04, 2.70663350e-05, 6.88187938e-05, 6.39225982e-05,
          4.90540187e-05, -1.14932052e-04, -8.92714597e-05,
          -8.80304942e-05, 1.73143373e-04, 3.38717982e-05,
          1.65706617e-04, 1.60270487e-04, 1.02517610e-04, 5.51099984e-05,
          -2.85168462e-05, -2.99270923e-05, -1.38802434e-05,
          1.11226225e-04, 9.47354492e-05, 1.12255351e-04, 4.17588490e-05,
          6.10406933e-05, -2.34358795e-05, 1.56463830e-05,
          -1.34944194e-05, 3.59055848e-05, -1.50022361e-05,
          -2.49171881e-05, -3.82498001e-05, 1.50092252e-04,
          -5.68677387e-06, -3.74478732e-05, -2.03695436e-06,
          -3.91107496e-05, 7.50662657e-05, 2.33652736e-05,
          1.91597064e-04, 5.76627353e-05, -3.18389175e-05,
          -7.81519266e-05, -3.53130745e-05, 7.39810203e-05,
          6.82518657e-05, 5.38789718e-05, 5.05176649e-05,
          -7.41046597e-06, -1.02897015e-04, -8.09087142e-05,
          4.77957547e-05, 5.59682849e-05, 1.85035115e-05, 6.35093738e-06,
          -3.64323423e-05, -1.63161221e-05, 3.15770776e-05,
          -2.74452232e-05, -8.04833689e-06, -1.76809135e-05,
          1.17328809e-05, -2.03719665e-05, -7.42446355e-05 ]
      - [ 2.78728839e-04, -2.49137578e-04, -4.31219494e-04,
          -1.24840764e-04, -4.14615060e-04, 5.13849373e-04,
          1.59650408e-05, 1.19511906e-05, -9.86571977e-05,
          -1.53282148e-04, 1.31448134e-04, -1.69268096e-04,
          -5.03891097e-05, 1.05597508e-04, 3.32985626e-04,
          5.38258115e-04, -5.77730752e-05, -5.32790618e-05,
          2.97939205e-05, 2.45516039e-05, -1.29779452e-04,
          -3.16012229e-05, 1.46055158e-04, -5.96730060e-05,
          -5.74558771e-06, 2.55492214e-05, -3.72219001e-05,
          -4.06407489e-04, -3.62711435e-05, 1.11464382e-04,
          -2.90146963e-05, -3.20375897e-04, 1.96945373e-04,
          3.62971594e-04, 1.30007946e-04, -6.62336388e-05,
          -2.56429543e-04, 4.40315256e-04, 5.59945009e-04,
          1.62513927e-04, 2.04386786e-04, -1.35467650e-04,
          -2.11096863e-04, 3.15371231e-04, 3.45358130e-04,
          -3.86915606e-04, -2.16331769e-04, -7.29876119e-05,
          2.79204629e-04, 1.04783256e-04, -2.51067482e-04,
          4.76848450e-04, 6.15124736e-05, 1.22651123e-04, 9.52813207e-06,
          9.37896984e-05, -7.39517505e-04, -4.70012164e-04,
          3.16733313e-05, 1.27607709e-04, 8.98478029e-04, 1.47006533e-04,
          1.53875953e-04, -1.71845400e-04 ]
      - [ -1.27036852e-04, -6.41682345e-05, -1.04148858e-04,
          -8.41797082e-05, 5.13760169e-05, -2.62469461e-04,
          -5.71031764e-04, 2.07072764e-04, -1.42844176e-04,
          9.90356566e-05, -6.20635255e-05, 5.06289420e-04,
          4.98518348e-04, 1.70497791e-04, -1.80859628e-04,
          -2.08857222e-04, -4.00470781e-05, -2.32098871e-04,
          -5.78693252e-05, 1.49793996e-04, 3.31701740e-04,
          1.36304981e-04, 3.40126862e-04, 2.98166706e-04, 2.39633635e-04,
          -9.85578445e-05, 2.17588051e-04, 1.09587934e-04,
          1.05042054e-04, -1.36354836e-04, -1.03712737e-04,
          -2.33841256e-05, 3.75046482e-04, -1.61671996e-04,
          -2.72206555e-04, 9.65789513e-05, -2.48742173e-04,
          -8.13789957e-05, -4.72234424e-05, 2.07685021e-04,
          2.86106206e-05, -1.06740721e-04, -1.42897596e-04,
          -6.67859422e-05, -4.38584466e-05, -1.03414248e-04,
          -3.37474012e-05, 4.53202636e-04, -1.52427121e-04,
          -3.06257687e-04, -4.92044164e-05, 5.12525767e-05,
          1.90475170e-04, 1.43864119e-04, -2.77576415e-04,
          -2.74568796e-04, -5.29864410e-05, 1.79099399e-04,
          9.91088600e-05, -2.32615974e-04, -2.30062928e-04,
          1.05129591e-04, -1.41488053e-04, -3.54133110e-04 ]
      - [ -8.93394899e-05, -6.81404854e-05, -5.93331133e-05,
          -1.13861397e-05, 3.60992453e-05, 1.69926825e-05,
          -6.38063502e-05, -7.98518449e-05, -4.57326969e-05,
          -7.70520128e-05, -8.19423221e-05, 1.07284519e-04,
          4.17126139e-05, 1.09633947e-04, 4.49338768e-05,
          -1.03249411e-04, -4.61672571e-05, 2.92940456e-07,
          -7.46916794e-06, -2.48145011e-06, 2.30037313e-06,
          4.54074871e-06, 1.52002831e-04, 6.73762988e-05,
          -3.32572818e-05, -2.25031581e-05, 3.88713488e-05,
          2.95026839e-05, 7.28445457e-06, 6.53269535e-06, 8.30865702e-06,
          6.30893146e-06, 1.33216396e-04, -3.19126848e-05,
          -1.13779337e-04, -2.10905000e-05, -1.07228392e-04,
          1.84331493e-05, 5.06994729e-05, -2.22143099e-05,
          1.22016660e-04, 4.63800643e-05, -3.22950618e-05,
          -7.06251303e-05, -1.83149969e-04, -4.79533946e-06,
          1.41742448e-05, 7.55726214e-05, -2.19869238e-04,
          -1.80652332e-05, -1.10317102e-04, -2.90712851e-05,
          1.38152667e-04, 1.09663102e-04, 1.54752081e-04,
          -7.41668482e-05, -2.14394793e-04, -9.13562835e-05,
          1.71877502e-04, 1.36036382e-04, -1.84527125e-05,
          5.63308968e-05, -5.00338901e-05, -1.31639419e-04 ]
      - [ -1.71362291e-04, -5.64287984e-05, 1.37774434e-04,
          6.76375348e-05, 4.32497945e-05, -4.96920911e-05,
          -9.11257084e-05, -6.52905073e-05, -1.00217563e-04,
          5.89474330e-05, -2.50302164e-05, 1.69810883e-04,
          1.60357435e-04, 2.39835805e-04, 1.25255043e-04,
          -5.87489376e-05, 1.68430008e-04, -5.69575877e-06,
          -4.25203907e-05, -6.71200632e-06, -3.80380734e-05,
          -2.14164811e-05, -3.63882136e-05, -3.32944583e-05,
          -5.18961388e-05, -2.95656100e-05, -8.23379814e-05,
          -5.46361434e-06, -7.03442174e-06, 1.53971837e-06,
          -9.24033714e-07, 6.15662066e-06, -9.36295546e-05,
          -7.98204783e-05, -1.09425593e-04, -9.10268227e-06,
          -3.57253448e-05, 5.49020006e-05, 1.88917475e-04,
          -2.18396672e-05, -5.17925582e-05, -4.55640002e-05,
          2.04875068e-05, 6.17624537e-05, 1.72035598e-05, 4.06774743e-05,
          7.98992551e-05, 2.19706317e-06, 1.24438418e-04, 1.84221590e-05,
          3.06611000e-05, -1.88052254e-05, -1.02934595e-04,
          -2.03890031e-05, 1.42840348e-04, -4.62363241e-05,
          -1.60242664e-04, -1.55857109e-04, 1.01258272e-04,
          2.65332656e-05, 6.16206353e-06, -9.28179652e-05,
          -9.86678642e-05, -7.78838148e-05 ]
      - [ -2.50666810e-04, 4.11394940e-05, 2.00374285e-04,
          3.37402918e-04, 2.84818263e-04, 1.07901898e-04,
          -9.12218820e-05, -1.29883498e-04, -2.41508067e-04,
          -7.14637063e-05, 5.34656283e-05, 8.30977224e-05,
          2.59967579e-04, 9.45217253e-05, -1.09644956e-04,
          -3.12748423e-04, 1.10405606e-04, -3.04077184e-06,
          3.48171466e-06, 8.00809539e-06, 4.57394308e-05, 3.26807858e-05,
          1.14809562e-04, 1.11214895e-05, 3.36599842e-05, 1.06985746e-04,
          1.61748874e-04, -2.83335539e-04, 4.96917492e-05,
          -5.36887892e-05, 1.11960893e-04, 1.50230071e-05,
          7.02599282e-05, 3.99383687e-04, -1.24501588e-04,
          -4.20205324e-04, -2.16013475e-04, 6.25651155e-05,
          -2.85396636e-05, 5.05872376e-05, 3.13389435e-04,
          2.32730818e-05, -4.76611276e-05, -3.13535274e-04,
          -2.82041176e-04, -1.38155461e-04, 1.04507359e-04,
          2.71260826e-04, -3.80831654e-04, 1.36257964e-04,
          -1.46016362e-04, 5.51079611e-05, -1.93720713e-04,
          1.28198926e-05, 5.71834789e-05, -4.14947244e-05,
          1.18030175e-05, 4.52049971e-05, -2.60197732e-04,
          -6.26264591e-05, -8.14529267e-05, 2.06354780e-05,
          1.23397185e-04, -1.70060302e-04 ]
      - [ -2.25686890e-04, -1.67923645e-04, 6.30107461e-05,
          1.56063194e-04, 9.11214302e-05, 3.55228149e-05,
          -1.94854947e-05, -2.83775944e-06, -6.84711922e-05,
          4.44485777e-05, -4.58906725e-05, 1.17014708e-04,
          8.82961103e-05, 1.52625609e-04, 1.00006269e-04, 3.49653637e-05,
          6.31276562e-05, 1.61224707e-05, 1.19092119e-05,
          -4.28609965e-05, 3.69195027e-06, 2.45741489e-06,
          -3.93319033e-06, 8.98481521e-05, 4.24827740e-05,
          5.97356666e-05, -7.16223440e-05, -4.74840635e-05,
          -9.18464775e-06, 1.12738226e-05, -6.42151508e-06,
          -1.03892046e-06, 5.16524233e-05, 3.29303912e-05,
          -6.57065393e-05, -4.89282575e-05, -8.11260270e-06,
          1.65221136e-05, 2.70186447e-05, 1.14218812e-04, 1.13523520e-05,
          -4.16238072e-05, -7.91814455e-05, 1.62184933e-05,
          2.28560075e-05, 7.80044593e-06, 7.82797433e-05, 6.32266747e-05,
          1.49049947e-05, 3.97622352e-06, 4.23677047e-05,
          -8.47291521e-05, -3.50756527e-05, 2.96528515e-06,
          5.11746293e-05, 1.33570002e-05, 3.60852428e-05, 8.67414201e-06,
          -1.12946054e-06, -1.31575915e-04, -3.36704761e-05,
          2.19676203e-05, 3.66554596e-05, -3.95181996e-05 ]
      - [ -9.76233277e-05, 1.37198324e-04, 4.52878885e-04,
          -6.13759257e-05, -9.39043457e-05, -5.55372353e-05,
          2.45787433e-05, 1.39850381e-05, -4.17648407e-04,
          1.60191485e-04, -8.35063329e-05, 1.53317655e-04,
          1.48649196e-04, -3.09955562e-04, 7.01828860e-04,
          6.05130801e-04, 3.29267437e-04, -1.65213642e-05,
          5.72585996e-05, 1.10714236e-05, -1.11625041e-05,
          -9.30265287e-06, 3.93007154e-04, -2.70516990e-04,
          -3.80244572e-04, 3.53925978e-04, 2.70986522e-04,
          -2.63308048e-05, -7.90023751e-06, 1.13113845e-06,
          -3.67185567e-06, -1.24656930e-04, -2.99572333e-04,
          2.07956517e-04, -2.63147551e-04, -5.35231025e-04,
          -8.45156028e-05, -1.55218149e-04, 2.81284185e-04,
          -5.15206229e-05, 1.26954212e-04, -6.34143144e-05,
          -1.12786591e-04, 1.12314037e-05, -3.38490354e-04,
          -1.34788410e-04, 3.06501228e-04, -5.19981317e-04,
          2.25691721e-04, 1.79808616e-04, 1.23561520e-04, 4.20841970e-04,
          -2.32094153e-05, 3.26846457e-05, -2.41161528e-04,
          7.77529131e-05, -6.52769406e-04, -5.48385258e-04,
          -2.99607927e-04, -3.47269379e-04, 3.32369644e-04,
          6.21503510e-04, 5.45533199e-04, 5.77091123e-04 ]
      - [ -5.37775741e-05, 2.92174373e-04, 3.63056257e-04,
          5.36454027e-04, 1.49925996e-04, -1.98964291e-04,
          -3.90013854e-04, -7.63041957e-04, -9.78779863e-04,
          -7.81418858e-05, 2.02324212e-04, 9.32974333e-04,
          8.24618270e-04, -1.22067155e-04, -2.61608493e-05,
          -1.26909916e-04, -1.09608227e-05, -1.44760124e-04,
          -1.62629469e-04, -1.55180809e-04, 3.46199085e-04,
          2.32891442e-04, 1.55694215e-04, 1.85941361e-04, 5.52738260e-04,
          3.28835973e-04, 6.92840404e-05, -7.51958054e-04,
          3.00917978e-04, -1.38917618e-04, -3.28070164e-04,
          -1.04583305e-04, -5.83239365e-04, 1.79575345e-05,
          -3.09309748e-04, -1.16583379e-03, -4.94476000e-04,
          9.90194749e-05, 1.77896538e-04, 1.06091284e-04, 1.13958180e-04,
          -3.93188966e-04, -5.37434207e-05, 2.79798878e-05,
          -6.24806446e-04, -3.64194333e-04, -5.21813170e-04,
          -1.08903387e-05, -8.07981487e-05, 4.10652632e-04,
          2.30241712e-04, 2.00344250e-04, -3.94975446e-04,
          2.68043979e-04, -2.99808627e-04, -1.82194068e-04,
          -2.04584823e-04, 7.01969620e-05, -3.39092745e-04,
          -7.20120675e-04, -1.57830829e-04, 2.76479142e-04,
          6.81303150e-04, 8.17357359e-05 ]
      - [ -3.57715529e-04, -1.11310919e-05, 1.49019237e-04,
          2.06596073e-04, 5.42211637e-05, 1.22520432e-05,
          -2.47846241e-04, -1.81845477e-04, -2.56180967e-04,
          -5.29216413e-06, -1.01846730e-04, 2.67399912e-04,
          2.76933250e-04, 4.95023851e-05, 1.03105536e-04,
          -7.29383464e-05, 1.10839770e-04, 2.74416766e-06,
          2.12886825e-05, 4.54162972e-07, 2.35052194e-05,
          -9.73057831e-06, 1.65546531e-04, 1.34733258e-04,
          -1.40465156e-04, 4.43929312e-05, -5.56147552e-06,
          2.03146698e-07, 3.42506137e-05, 6.35737649e-07, 3.95267198e-05,
          1.50181413e-05, -1.62728174e-04, -7.35379508e-05,
          -1.36457762e-04, -2.44540453e-04, -8.51134173e-05,
          6.62023667e-05, 1.11717811e-04, -6.83119797e-05,
          -1.30560811e-05, -4.09732384e-05, -2.96555686e-06,
          5.25165378e-05, -2.76080449e-04, -1.60725875e-04,
          3.35718360e-05, 5.01062677e-05, -2.10750004e-04,
          3.55011689e-05, 5.12023689e-05, -1.77979348e-06,
          -8.70756121e-05, -1.53124201e-05, 2.66752322e-04,
          -1.04573708e-04, -2.56824074e-04, -3.51432012e-04,
          1.85463054e-04, -6.50482107e-05, -8.97514474e-05,
          1.56482201e-04, 1.03443244e-05, -2.19939771e-04 ]
      - [ 5.25502401e-05, 7.37709925e-05, -3.60983977e-05,
          -5.18927445e-05, 4.91483734e-05, 5.13621926e-05,
          5.86446367e-05, 5.79434200e-05, -3.55210286e-05,
          3.57832287e-05, 8.14584382e-06, -7.30133688e-05,
          -1.11678755e-05, -2.30202531e-05, -1.68338767e-04,
          -1.01864920e-04, -1.51789005e-04, -9.29337693e-06,
          3.84067000e-08, 7.89267858e-07, 1.08978580e-04, 5.44393697e-05,
          3.74027586e-05, -4.24451173e-06, -8.64512367e-06,
          1.15949269e-05, 3.30201983e-05, 2.32094844e-05, 1.93115993e-05,
          -8.35824267e-06, -1.86357249e-06, -6.71595853e-06,
          1.92606996e-04, 8.30863792e-05, 1.60818410e-04,
          -1.18596063e-05, -6.60326332e-05, -1.01680002e-04,
          -4.56236448e-05, 4.53180364e-05, 1.23896287e-04,
          6.30023933e-05, -1.32414149e-04, -2.11347011e-04,
          -9.89305336e-05, -2.79039123e-05, -4.09052773e-05,
          2.17059678e-05, -9.60019825e-05, -1.55743372e-04,
          4.37176495e-05, -7.49579121e-05, -4.14888018e-05,
          -9.43303676e-05, -1.09786713e-04, 6.57684286e-05,
          1.05137551e-04, 5.80786182e-05, 2.39629280e-05,
          -3.74079173e-05, 1.31071793e-05, -3.75524928e-06,
          1.05160332e-04, -8.53674283e-05 ]
      - [ -3.35045333e-04, -1.15679701e-04, 1.92875043e-04,
          6.28471535e-05, 8.85099726e-05, 1.31100969e-04, 3.68782989e-04,
          1.83967248e-04, -1.17916723e-04, 5.59634427e-05,
          -3.59691010e-04, 3.37932943e-05, 1.13249257e-07,
          -3.42719227e-06, -1.10666497e-06, 8.76989070e-05,
          -1.56223796e-05, 1.45385357e-05, -8.87592614e-05,
          -1.02558661e-04, 2.42970447e-04, 1.11308284e-04,
          -6.87309293e-05, 1.55510497e-04, -1.15379618e-04,
          -4.05896244e-05, 8.43734670e-05, 4.72568572e-05,
          -1.05624895e-05, 2.87275520e-06, -2.05231845e-05,
          -6.01635147e-05, 3.42643471e-04, 2.09921389e-04,
          -1.71664360e-04, -8.24649251e-05, 1.05772297e-05,
          -3.00840329e-04, -2.02264229e-04, 2.26121425e-04,
          6.07096663e-05, -1.90244085e-04, 9.35542721e-06,
          -1.21253332e-04, 2.47070075e-05, -6.27053805e-06,
          1.73672997e-05, 7.13196687e-06, 2.41228845e-05,
          -2.02649651e-04, -3.95637253e-05, -9.25602581e-05,
          3.55942175e-05, 2.23125302e-04, -5.40252840e-05,
          -7.66876838e-05, 2.88796291e-04, 1.65180405e-04,
          -2.30760943e-05, -2.34845182e-04, -2.47368822e-04,
          4.04246530e-05, 1.40638207e-04, 8.32816477e-06 ]
      - [ 1.97343616e-04, 1.19313736e-04, 1.58334205e-05,
          -1.91112660e-04, -1.42321602e-04, 9.91727939e-05,
          8.91864984e-05, 8.76218037e-05, 1.54603389e-04, 5.15553511e-05,
          -1.59041228e-04, -2.01580347e-04, -2.88029289e-04,
          -1.78850183e-04, -9.40350146e-05, 7.06305291e-05,
          -4.54090768e-05, -2.58288874e-05, 6.90712041e-05,
          1.41145915e-06, 5.44923969e-05, 3.95212228e-05, 9.65608269e-05,
          2.84519047e-05, -5.00561291e-05, -6.92947433e-05,
          1.25441744e-04, -1.85980225e-05, 4.44705074e-05,
          1.65744641e-05, -9.07271806e-06, -1.67823964e-04,
          9.08785369e-05, 2.57516949e-04, 1.84139950e-04,
          -1.96976853e-05, -1.21203702e-04, -3.31528031e-06,
          -6.34945463e-05, 2.08123583e-05, 4.13096168e-05,
          3.28782007e-05, 4.72051288e-05, -1.64552112e-04,
          -1.14018425e-04, -2.15010994e-04, -5.48773423e-05,
          -6.25672110e-05, -1.18289776e-04, -2.41373506e-04,
          -1.07185304e-04, 2.47073367e-05, 1.25017817e-04,
          4.64291315e-06, -1.81910309e-05, -1.33765323e-04,
          -6.14656456e-05, -2.34338131e-05, -3.35859149e-05,
          1.09447057e-04, 1.59425312e-04, 1.93286614e-04, 2.90845783e-04,
          4.83621479e-05 ]
      - [ 1.86242338e-04, 1.18981887e-04, -5.46579031e-05,
          -1.27601874e-04, -5.92658980e-05, 5.63400936e-05,
          1.03517465e-04, 1.46403123e-04, 6.44193060e-05, 5.72403733e-05,
          -4.00078825e-05, -8.06900644e-05, -1.51229178e-04,
          -1.28653221e-04, -1.70171363e-04, 5.43363749e-05,
          -1.06309693e-04, -9.05523993e-05, -1.01132091e-05,
          -2.09474420e-05, 1.67508610e-04, 1.73561595e-04,
          1.38709554e-04, 1.81706622e-04, 9.44142521e-05, 6.67525746e-05,
          6.34095486e-05, -3.89939305e-06, -1.48394465e-05,
          -1.03253740e-04, -7.76008528e-05, -1.03915654e-05,
          1.60603900e-04, 1.02060094e-05, 4.98181616e-05,
          -6.66508495e-05, -9.47445878e-05, -2.78853375e-04,
          -1.40793796e-04, 3.83216684e-05, 1.60811705e-05,
          -4.64994810e-05, -1.27864041e-04, -1.53181973e-04,
          -1.49909567e-04, -1.46171020e-04, -1.49334119e-05,
          -7.27676234e-05, 5.15006775e-07, -9.99931726e-05,
          -5.40540623e-06, -2.69111406e-05, 9.90482295e-05,
          7.64418219e-05, -3.63119034e-04, -1.18082236e-04,
          1.99441711e-04, 1.43996556e-04, -9.41889593e-05,
          -2.10409180e-05, -1.76715650e-04, 9.57168813e-05,
          1.07294894e-04, 1.65084086e-04 ]
      - [ -3.98735101e-05, 7.24758720e-05, -3.29548697e-04,
          -1.58429044e-04, 1.75647991e-04, 4.82591015e-04,
          2.69493350e-04, -2.28931429e-04, -2.02176307e-04,
          -2.96345883e-04, -7.94899534e-04, -4.54934052e-04,
          -1.64780256e-04, -1.76262947e-05, 1.63181703e-05,
          -1.55133108e-04, 5.97389180e-06, 5.09759702e-05,
          3.47160618e-04, 1.32504802e-05, 8.90044830e-05, 5.44462746e-05,
          8.78823412e-05, 1.13757989e-04, -5.22807604e-05,
          3.04330257e-04, 3.04840796e-04, -7.03382611e-05,
          1.43111538e-04, 1.09128530e-04, 3.00962674e-05, 7.17251387e-05,
          1.20921708e-04, 1.56834387e-04, -5.93423429e-05,
          -4.77476569e-05, -5.43509843e-04, -3.60218371e-04,
          -4.39714961e-04, -2.26391312e-05, 2.80808978e-04,
          1.63539691e-04, 4.57193255e-06, -5.37081389e-04,
          -6.15863362e-04, -5.30102523e-04, -3.29964183e-04,
          -9.57536759e-05, -9.04709668e-06, -1.29029067e-04,
          1.40697724e-04, 2.57765874e-04, 3.57527373e-04,
          -2.45924457e-04, -8.41241126e-05, -2.07111720e-04,
          -1.30544169e-04, 1.35476046e-04, 2.95721984e-04,
          1.19579650e-04, 2.63305090e-04, 1.24365353e-04, 4.51507396e-04,
          -1.02599552e-04 ]
      - [ -2.60435452e-04, -2.85875169e-04, 6.58517674e-05,
          2.17479726e-04, 1.56186215e-04, 3.43718639e-05,
          -2.84608177e-05, 4.58205250e-05, -3.09992232e-04,
          -3.94360919e-04, -8.76399354e-05, 1.71570995e-04,
          3.72470604e-05, 2.50301969e-06, 5.43224851e-05, 2.92300305e-04,
          1.49438740e-04, 3.70869493e-05, 4.11821056e-05,
          -2.88215015e-05, -1.61284042e-05, -3.14089448e-06,
          1.56072492e-04, -1.84430348e-04, -1.12736656e-04,
          1.93516113e-04, 6.99478333e-05, -4.76733949e-05,
          4.47313687e-06, 9.30545939e-05, 9.07861177e-05, 1.01599406e-04,
          -4.34266913e-05, -5.87307404e-05, -2.03816759e-04,
          -1.09476525e-04, 1.38719906e-05, 1.70312022e-04,
          -1.62122873e-04, 1.08979009e-04, -1.38676711e-04,
          -1.35697934e-04, 3.48673901e-04, 2.93934456e-04,
          8.94552868e-05, -8.73841927e-05, -2.17571815e-05,
          6.38960319e-06, 3.45269655e-04, 1.63641016e-04, 9.77676564e-07,
          4.26708975e-05, 1.85951067e-05, 9.88371467e-05, 1.91486452e-05,
          -1.66909464e-04, 3.38625869e-05, -1.16211762e-04,
          -6.06306858e-05, -2.68122356e-04, -2.27547716e-04,
          -1.82363656e-04, 6.56334014e-05, 5.08475568e-05 ]
      - [ 1.36458213e-04, 1.03511375e-05, -3.48241629e-05,
          -1.00639401e-04, -1.63452132e-04, -3.46830384e-05,
          3.51000608e-06, 9.09986557e-05, 2.30328569e-05,
          -3.77957185e-05, -5.53005520e-05, -2.35274183e-05,
          -1.77208916e-04, -3.61335947e-06, 1.49468309e-04,
          2.10930884e-04, 1.13760529e-04, 4.18315676e-06, 6.70173404e-06,
          -7.20778957e-08, -1.24465987e-05, -3.75077398e-05,
          -5.76802449e-05, -5.03922456e-06, 1.30810422e-05,
          4.59577277e-05, -4.26660972e-06, 1.80019995e-07,
          -9.77593800e-07, 9.92796686e-06, -7.98564452e-06,
          -1.03116065e-04, -1.20463112e-04, -1.37343333e-04,
          3.45092008e-06, 1.32232253e-05, 1.98873768e-05, 6.64876134e-05,
          1.06537344e-04, -7.11104294e-05, -9.23074404e-05,
          -1.47107829e-04, 8.27471595e-05, 2.85904680e-04,
          7.38195813e-05, -5.06052311e-05, -4.59751391e-05,
          -9.40563841e-05, 9.50569956e-05, 4.45693913e-05,
          5.68493160e-05, 5.71394557e-05, 8.99240185e-05, 1.68061331e-06,
          4.11700566e-05, -8.88962120e-07, -1.81299969e-04,
          -1.21707970e-04, -2.88146221e-05, 7.78849499e-05,
          7.88341422e-05, 7.77998575e-05, 9.43403356e-05, 3.35485674e-05 ]
      - [ 2.00814582e-04, 3.45357403e-04, 2.44679777e-05,
          -1.69040231e-05, -2.99905281e-04, -6.45196342e-05,
          2.00891373e-04, 2.20037793e-04, -1.68027938e-04,
          -2.55395367e-04, -3.79951642e-04, -1.80498624e-04,
          2.46200827e-04, 1.83742377e-04, 7.81873605e-05, 2.81571090e-04,
          5.70497214e-05, 1.59289979e-04, -1.07888673e-05,
          1.40534656e-04, 1.73127446e-05, 2.71151424e-04, 2.54589359e-05,
          -6.86627900e-05, -5.19438399e-05, 1.76943649e-04,
          1.24720507e-04, 5.97277307e-04, -4.03819256e-04,
          7.14920607e-05, -1.35510563e-04, -2.00342867e-04,
          -1.22379989e-03, -6.61311497e-04, -3.44458356e-04,
          -3.31096002e-04, -4.19155345e-04, -6.45196706e-04,
          -1.09804452e-04, -5.14964748e-04, -4.46577469e-04,
          -7.58502807e-04, 1.88784485e-04, 5.22506831e-04,
          4.08989639e-04, 6.30728391e-05, 1.04891922e-04,
          -6.80078228e-04, 7.87897792e-04, 8.69628624e-04,
          7.79047958e-04, 1.53194749e-04, 5.30114281e-04, 9.17092548e-05,
          -1.35476541e-04, 1.93530468e-05, -1.18305834e-04,
          -5.26427129e-07, 3.46961315e-05, -3.94339186e-05,
          3.53604526e-04, 4.66893747e-04, 5.54359176e-05, 9.15337354e-04 ]
      - [ 1.27597232e-04, -1.37650031e-05, -1.30624161e-04,
          -3.83491933e-05, 3.39360886e-05, -1.69797531e-05,
          -2.00740124e-05, -9.03260589e-05, -1.18465769e-05,
          -8.29618220e-05, -9.63124621e-05, 7.41679241e-06,
          -2.95835925e-04, -5.77989595e-05, 1.77257229e-04,
          6.60357473e-05, -5.10698010e-06, 1.22219662e-05,
          -5.35789077e-05, -3.78081859e-05, -1.24007840e-06,
          -1.43153020e-05, 1.08569679e-04, -1.21077603e-04,
          -5.23300878e-05, 1.09868553e-04, 1.61510834e-05,
          -2.82338970e-05, -2.67671639e-05, 6.35402239e-06,
          1.65207257e-06, 5.92573415e-05, -5.97385624e-05,
          -1.34324408e-04, -2.07221077e-04, -3.40480874e-05,
          -1.98054640e-05, 1.13194605e-04, 1.62861033e-04,
          -2.43373259e-04, -1.48897787e-04, 2.65865856e-05,
          1.46650738e-04, 2.34487990e-04, -1.32180096e-04,
          -9.31582545e-05, -8.09829289e-05, -4.72012616e-05,
          1.20043544e-04, 1.75581343e-04, -1.06753672e-04,
          4.65377780e-05, -9.46213040e-05, 1.24872662e-04,
          1.47755592e-04, 9.24979031e-05, -2.28403587e-04,
          -2.09663063e-04, 3.12377029e-04, 5.37743872e-05,
          -8.33416416e-05, -5.23614617e-05, 1.24996532e-05,
          1.34134098e-05 ]
      - [ 1.94328124e-04, 8.82386303e-05, -1.16481733e-05,
          -8.84268302e-05, -1.30264394e-04, -7.07812069e-05,
          8.63927380e-06, 2.46833170e-05, 7.84326985e-05,
          -1.42339004e-05, 5.86994975e-05, -9.12457763e-05,
          -1.21018580e-04, -5.30251382e-05, -1.96091096e-05,
          1.00408561e-05, -2.20264264e-05, -9.00230646e-07,
          2.44113962e-05, 4.88392034e-05, -2.06895966e-05,
          -4.84431366e-05, -2.29627094e-05, -3.86877000e-05,
          -4.09360073e-05, 1.39595941e-05, 7.11362736e-05,
          5.35699801e-05, 1.07804417e-05, -2.67908740e-06,
          4.32531215e-06, -4.45757678e-06, -1.96081692e-05,
          4.21187397e-05, 9.94844449e-05, -4.54330693e-05,
          -4.72452266e-05, 2.04528023e-05, 5.65419468e-05,
          -8.21212598e-05, -4.21995907e-07, 6.56285119e-05,
          5.45911753e-05, -2.00855811e-05, -5.39122739e-05,
          -4.73630535e-05, -3.87887849e-05, -5.55678162e-05,
          -5.24288553e-05, 2.07047924e-05, 2.92691766e-05,
          1.67859341e-07, -1.98799603e-06, -3.15454199e-05,
          8.29517319e-07, -4.65011508e-05, -6.91021851e-05,
          -9.42233673e-05, 4.66475867e-05, 9.81226694e-05,
          9.04656554e-05, 1.72557648e-05, -4.99611861e-06,
          -2.64496030e-05 ]
      - [ 3.61524057e-04, 3.47235909e-04, -2.90463777e-05,
          -1.55090354e-04, -1.66086131e-04, -9.85935258e-05,
          -3.58346733e-05, -5.25823707e-05, 1.15003822e-04,
          1.42088073e-04, 1.02263490e-04, -1.17289848e-04,
          -3.02449680e-05, -7.12945548e-05, -2.26958917e-04,
          -2.65562529e-04, -6.32010851e-05, -8.93442775e-05,
          -1.21986807e-06, 8.11793216e-05, -8.94004334e-05,
          1.54696863e-05, -6.02714499e-05, 3.45703047e-05,
          1.43029920e-05, 3.80341794e-06, 1.05798965e-04, 1.04472689e-04,
          -3.54812146e-05, -1.14371731e-04, -4.24951531e-06,
          5.74420119e-05, -5.73401667e-05, -8.33713784e-05,
          1.10481938e-04, 4.37996459e-05, 7.64447468e-05,
          -1.40581105e-04, -2.06023324e-04, -2.12076615e-04,
          8.48437194e-05, 6.56482662e-05, -2.79412234e-05,
          -1.18181106e-05, -1.19512617e-04, -1.47725004e-04,
          2.05897850e-05, -1.01174708e-04, -1.18647084e-04,
          8.27290714e-05, -4.74334229e-05, 2.82053261e-05,
          4.62383723e-05, -6.34568714e-05, -1.93033105e-04,
          2.73454170e-05, -8.86542512e-06, -2.97862462e-05,
          -8.59116844e-05, 4.71855019e-05, -4.48412247e-05,
          1.21453028e-04, 3.77530487e-05, 1.72228596e-04 ]
      - [ 1.85286932e-04, 1.39232841e-04, -1.14120157e-04,
          -9.18022997e-05, 4.83754729e-06, -5.66418712e-05,
          -8.95074663e-06, 2.70106757e-05, 6.47148190e-05,
          4.50181287e-05, -2.59573644e-05, -3.14624231e-05,
          -4.89565500e-05, -5.98175757e-06, -2.63496695e-05,
          -7.85811790e-05, -4.56016533e-05, 8.38885171e-07,
          -1.62858705e-05, 1.99870155e-05, 0., 7.11778375e-06,
          5.18849774e-05, -1.17852960e-05, -1.07486940e-05,
          8.97856444e-06, 7.24200727e-05, 3.50578775e-05,
          -3.93794426e-06, 1.53988573e-08, -1.68848271e-06,
          9.09035316e-06, -1.94212971e-05, -1.68127845e-05,
          -1.22769125e-05, -1.05415820e-05, -6.56245829e-05,
          -2.38033099e-05, 2.65833769e-05, -1.14526694e-04,
          -5.52838937e-05, 9.22918043e-05, 1.45251361e-05,
          -6.96539209e-05, -9.12038304e-05, -3.03545712e-05,
          -3.85498570e-05, -2.50208905e-05, -5.39552930e-05,
          4.59493349e-05, 7.64515971e-06, 6.98928998e-05,
          -3.46188899e-05, 1.08511704e-05, 1.58199600e-05,
          4.87688958e-05, -1.72260203e-04, -7.66958110e-05,
          1.82812975e-04, 1.35255919e-04, 4.63573488e-05,
          -4.05692772e-05, -4.52781524e-06, -6.25868342e-05 ]
      - [ -3.53577016e-05, 7.91841012e-06, -3.59457226e-05,
          1.52974651e-04, 1.32760397e-04, -8.89678195e-05,
          -2.55397841e-04, -1.06062078e-04, -8.44587194e-05,
          -2.14663887e-05, 1.80832485e-05, 2.15543929e-04,
          3.91263107e-04, 4.12564077e-05, -2.54458660e-04,
          -3.93215276e-04, -1.23450096e-04, -2.99739477e-05,
          -3.12451157e-05, -1.68876486e-05, 3.52708630e-05,
          6.45560867e-05, 2.87312514e-06, 5.18484958e-05,
          -4.46109843e-05, 4.98675618e-05, 5.41144182e-05,
          -3.86304564e-05, -1.97619502e-05, 1.13994938e-05,
          -4.75368361e-05, 1.71145555e-04, -1.71136417e-04,
          -7.03550686e-05, -3.34177428e-04, 8.10868016e-07,
          -1.32133820e-04, 4.59382863e-06, -1.97005284e-04,
          1.56160284e-04, -1.49075931e-04, -8.44291062e-05,
          -7.69514154e-05, -1.38374031e-04, -8.90485753e-05,
          1.14809678e-04, -3.62785818e-06, 1.60149037e-04,
          -5.93945151e-05, -6.64773033e-05, -5.68576252e-06,
          5.91421940e-06, -4.47972816e-05, 1.15658018e-04,
          6.21828294e-05, -2.02157040e-04, 4.03719634e-04,
          2.12887127e-04, -4.33496643e-06, -2.82181631e-04,
          -3.22296866e-04, -5.41797999e-05, -2.03332515e-04,
          8.39169952e-05 ]
      - [ -4.63022967e-04, -1.06724183e-04, 2.72208831e-06,
          1.60223117e-05, 5.51177771e-04, 9.84948012e-04,
          -1.89006198e-04, -5.77819243e-04, -5.64116170e-04,
          4.04913037e-04, 1.00599835e-04, 5.04001335e-04, 4.70474362e-04,
          4.83323791e-04, -1.05335894e-04, -6.85091436e-05,
          -4.40628828e-05, 5.50770550e-04, 9.82067650e-06,
          1.82316813e-04, -4.39641852e-04, 2.91399338e-04,
          4.27547144e-04, 5.74768288e-04, -3.02788365e-04,
          1.58042894e-04, -1.60455762e-04, 7.02659381e-05,
          4.60307747e-05, 3.24793155e-06, -3.17494414e-04,
          6.95530092e-04, 7.49951927e-04, 2.13279869e-04,
          -3.18717066e-04, -3.55238299e-04, -1.49108630e-04,
          -3.08913528e-04, -2.66999268e-04, -1.73342720e-04,
          2.54329148e-04, -1.30267872e-04, 6.09890325e-04,
          3.18834354e-05, 9.22048202e-05, -6.05542955e-05,
          4.33373410e-04, 5.73994941e-04, 1.09335509e-04, 5.38704975e-04,
          -5.64199348e-04, -9.61610494e-05, -2.25675263e-04,
          -3.30593321e-04, 8.59433785e-04, 3.60278325e-04,
          -1.80386240e-04, -4.85629353e-05, 1.80954274e-04,
          -1.80159652e-04, -6.17443991e-04, -1.18733186e-03,
          -6.66712702e-04, -4.04494640e-04 ]
      - [ -9.97707684e-05, -2.13867941e-04, -1.41172321e-04,
          -1.19287710e-04, 1.30834480e-04, 3.18634011e-05,
          1.54294336e-04, 6.31434232e-05, -3.30147595e-05,
          -5.44334544e-05, -7.36352085e-05, -6.84112965e-05,
          3.71769383e-05, 2.60074565e-04, 2.64877162e-04, 1.32001187e-05,
          3.45134176e-05, 4.63061297e-05, 1.10107994e-05,
          -5.30615864e-07, 6.29532224e-06, -5.19976629e-06,
          1.93804284e-04, 2.06318946e-05, -7.76925954e-05,
          -2.23773441e-05, 4.82753676e-05, 3.28192618e-05,
          1.73131575e-05, 1.18740409e-05, 5.48967109e-05,
          -1.76103208e-06, -3.46273846e-05, 1.75449692e-04,
          -1.81322888e-04, -4.72067677e-06, 4.35396869e-05,
          6.58662320e-05, 5.27760822e-05, -2.05919234e-04,
          -3.78661753e-05, 8.68668940e-06, 1.64249228e-04,
          -8.02846407e-05, -3.00774554e-04, -2.45252340e-05,
          -3.62825085e-05, -5.22598270e-07, -3.69883695e-04,
          -8.38847263e-05, -1.73655484e-04, 8.99695151e-05,
          5.63557114e-06, -7.82921632e-07, 2.15044769e-04,
          2.17981244e-04, -2.04950935e-04, -1.00710888e-04,
          1.61302043e-04, 3.87395936e-04, 5.60182480e-06, 1.07809588e-04,
          6.34929456e-05, -4.06484294e-04 ]
   uncompressed_sv_total: 634
   uncompressed_support_vectors:
      - [ 2.60218823e+03, 7.21219043e+03, 6.18288428e+03, 0., 0., 0., 0.,
          0., 0., 2.30299854e+03, 6.79347046e+02, 1.37742163e+03,
          5.71063965e+02, 1.45830920e+03, 0., 9.33809433e+01,
          8.17729004e+03, 2.42182837e+03, 4.49608276e+02, 0., 0., 0.,
          1.79521509e+03, 2.28023926e+03, 2.38773315e+03, 5.65542334e+03,
          2.25854590e+03, 0., 0., 4.38406219e+01, 0., 1.37198267e+03, 0.,
          2.70118500e+02, 0., 1.68461792e+03, 1.68774585e+03,
          2.75887842e+03, 2.77099951e+03, 6.09668066e+03, 1.20493030e+03,
          6.24679077e+02, 1.99042444e+03, 9.15382690e+02, 1.47363306e+03,
          7.00021667e+02, 1.98083789e+03, 0., 1.33955298e+03,
          2.05791870e+03, 1.77621533e+03, 4.21868213e+03, 2.83637085e+02,
          0., 7.64607239e+02, 2.46022095e+03, 1.21991675e+03,
          3.51283472e+03, 5.57750342e+03, 2.42737598e+03, 2.05216675e+03,
          8.22921600e+01, 0., 1.24611743e+03 ]
      - [ 3.44029102e+03, 4.85622705e+03, 1.68395972e+03, 1.29355420e+03,
          0., 0., 0., 0., 1.57268225e+03, 6.17427551e+02, 2.09618698e+02,
          0., 0., 5.94810867e+01, 0., 3.67235718e+03, 1.61667949e+04, 0.,
          0., 0., 0., 0., 0., 0., 3.47448755e+03, 2.24755542e+03, 0., 0.,
          0., 0., 0., 0., 1.29453711e+03, 1.23223381e+02, 3.25419739e+02,
          0., 4.08078955e+03, 3.05368359e+03, 2.47542334e+03,
          6.68389746e+03, 1.74937048e+03, 1.02719141e+03, 7.94637573e+02,
          0., 1.42072156e+03, 4.05842346e+02, 8.23203491e+02,
          1.10176233e+03, 3.00942285e+03, 1.42888892e+03, 7.47753967e+02,
          6.22047424e+02, 7.13122681e+02, 4.30116272e+02, 0.,
          1.06817517e+03, 7.56548975e+03, 6.68650293e+03, 1.73452490e+03,
          1.54451929e+03, 2.01380957e+03, 1.98116135e+02, 0.,
          1.67326343e+03 ]
      - [ 3.07298413e+03, 8.85639453e+03, 2.95388477e+03, 2.78784253e+03,
          0., 0., 0., 0., 0., 1.40915723e+03, 5.16707617e+03, 0., 0., 0.,
          0., 0., 9.37948828e+03, 3.31742529e+03, 9.41196213e+01,
          4.24264050e+00, 0., 0., 0., 2.17654248e+03, 5.93755713e+03,
          5.99589746e+03, 1.25262354e+03, 0., 0., 0., 1.48949146e+03,
          2.16713062e+03, 2.37899139e+02, 0., 0., 0., 7.83483545e+03,
          2.80860083e+03, 3.91528052e+03, 4.94265771e+03, 0.,
          4.24264050e+00, 2.40881592e+03, 1.19132227e+03, 1.07527747e+03,
          4.22947461e+03, 7.97568115e+02, 1.48281812e+03, 2.13581665e+03,
          3.19426367e+03, 1.21026416e+03, 1.01237347e+03, 4.00627588e+03,
          0., 3.67695541e+01, 1.67698755e+03, 5.21134570e+03,
          5.77852002e+03, 2.51578052e+03, 2.30724756e+03, 3.61229175e+03,
          0., 1.07056995e+03, 2.54993042e+03 ]
      - [ 1.99854846e+03, 6.49166455e+03, 1.87414844e+03, 2.30773804e+03,
          0., 0., 0., 0., 0., 3.96518066e+03, 2.19440201e+02, 0., 0., 0.,
          0., 3.75719482e+03, 1.78118047e+04, 10., 0., 0., 0., 0., 0.,
          4.16793115e+03, 2.43307617e+03, 3.61762109e+03, 0., 0., 0., 0.,
          0., 0., 2.56538483e+02, 0., 1.06677086e+02, 1.45200562e+03,
          3.68308472e+03, 1.49363867e+03, 1.93278943e+03, 6.69332910e+03,
          7.78967773e+02, 2.94730664e+03, 1.15675513e+03, 3.63232697e+02,
          3.64156555e+02, 0., 5.08780914e+02, 3.39172607e+03,
          1.57798975e+03, 1.80605542e+03, 1.91581824e+03, 2.32821118e+03,
          0., 0., 0., 3.15712671e+03, 3.68397632e+03, 5.94404248e+03,
          2.66930029e+03, 1.77045483e+03, 2.03920215e+03, 0.,
          4.19926178e+02, 2.87359790e+03 ]
      - [ 3.52248950e+03, 2.64755664e+03, 1.72311279e+03, 1.32792981e+03,
          0., 0., 0., 0., 6.22009644e+02, 2.66905298e+03, 1.59716382e+03,
          1.59380051e+02, 0., 0., 0., 0., 6.86785742e+03, 0., 0., 0., 0.,
          0., 1.24459741e+03, 8.55263428e+02, 2.40022925e+03,
          3.65071313e+03, 0., 0., 0., 0., 0., 7.52176025e+02,
          1.61009323e+02, 0., 0., 0., 2.28764404e+03, 6.78517334e+02,
          4.05598291e+03, 2.57125659e+03, 2.21002258e+02, 0.,
          4.71076782e+02, 8.26834961e+02, 1.06075439e+02, 7.11163818e+02,
          2.29704712e+03, 1.70254272e+03, 1.02996057e+03, 8.97036682e+02,
          9.93579407e+01, 2.53791187e+03, 5.18396057e+02, 1.07935165e+02,
          4.66146126e+01, 1.77047485e+03, 1.98437561e+03, 2.89404810e+03,
          1.67783728e+03, 2.02299438e+03, 5.94053894e+02, 0.,
          1.69705620e+01, 2.71111987e+03 ]
      - [ 4.68235400e+03, 1.81902209e+03, 9.78828308e+02, 1.04331641e+03,
          0., 0., 0., 0., 5.07986963e+03, 7.79358704e+02, 0.,
          8.02246857e+01, 0., 0., 0., 1.28895349e+03, 1.22151846e+04, 0.,
          0., 0., 0., 0., 8.69098389e+02, 8.73417419e+02, 1.39731433e+03,
          7.77405884e+02, 0., 0., 0., 0., 0., 0., 1.27062329e+03, 0.,
          2.44584991e+02, 1.06011938e+03, 2.11026062e+02, 8.30128479e+02,
          1.62663806e+03, 3.37106250e+03, 1.12369519e+03, 6.40640503e+02,
          4.56004395e+02, 3.23554810e+02, 0., 2.02474686e+02,
          2.01134018e+02, 2.68695264e+03, 1.68914661e+03, 2.73634106e+03,
          6.33103455e+02, 1.46828967e+03, 4.90917511e+01, 0.,
          1.59524841e+01, 1.03375085e+03, 3.30119214e+03, 3.23114087e+03,
          1.96022437e+03, 1.58781689e+03, 0., 0., 4.63249397e+01, 0. ]
      - [ 4.29504248e+03, 4.47261621e+03, 3.31525024e+03, 1.43780786e+03,
          0., 0., 0., 3.90184570e+02, 3.31889917e+03, 2.89062500e+03,
          1.28994263e+03, 0., 0., 0., 2.67089966e+02, 1.91905441e+02,
          1.20093877e+04, 0., 2.12132034e+01, 0., 0., 0., 2.73752734e+03,
          2.52914038e+03, 2.48827319e+03, 2.89974976e+03, 0., 0., 0., 0.,
          0., 2.55568741e+02, 6.42123047e+02, 5.48605469e+02,
          1.02756519e+03, 2.66937280e+03, 2.46662842e+03, 1.27959363e+03,
          3.65872656e+03, 2.93844312e+03, 4.40857269e+02, 1.56034424e+03,
          0., 1.66529272e+03, 7.75743469e+02, 1.50970239e+03,
          2.75215869e+03, 4.27310211e+02, 6.52701477e+02, 0.,
          1.31410645e+03, 1.96489551e+03, 1.50082837e+03, 1.44222050e+01,
          1.64158044e+03, 2.35606445e+03, 2.47025049e+03, 2.11984229e+03,
          1.99035120e+03, 3.03276611e+03, 1.51453711e+03, 7.21803284e+01,
          1.52974121e+03, 3.42768774e+03 ]
      - [ 1.12320386e+03, 3.27596045e+03, 1.63126855e+03, 1.73109399e+03,
          1.69829211e+03, 0., 0., 0., 0., 3.03001758e+03, 3.62505188e+02,
          1.18785718e+03, 2.08086517e+02, 6.79615356e+02, 4.64605194e+02,
          0., 5.64217871e+03, 9.70157288e+02, 1.40942847e+03,
          1.00370728e+03, 5.65862160e+01, 0., 0., 0., 0., 1.20498608e+03,
          3.00397241e+03, 1.03549951e+03, 3.67967377e+01, 0.,
          4.39822693e+02, 0., 0., 0., 8.45340118e+01, 7.18401123e+02,
          3.06025391e+03, 3.29042114e+03, 1.42427673e+03, 1.09900317e+03,
          0., 3.33829620e+02, 8.44757202e+02, 5.76003479e+02,
          6.59146423e+02, 2.63511768e+03, 1.52288904e+03, 0.,
          1.17836633e+03, 7.65398926e+02, 1.36992651e+03, 2.77688354e+03,
          4.29287628e+02, 0., 0., 0., 1.52979639e+03, 1.43516394e+03,
          3.50140039e+03, 3.32285400e+03, 38., 0., 1.02459755e+02, 0. ]
      - [ 5.31037158e+03, 2.25773706e+03, 5.04980273e+03, 4.81814746e+03,
          8.28613281e+01, 0., 4.60651703e+01, 0., 8.93985413e+02,
          1.41741602e+03, 2.89780884e+03, 2.22804840e+02, 9.24592224e+02,
          0., 1.04383093e+03, 0., 1.12293896e+04, 1.73517480e+03,
          1.07629541e+03, 8.62670212e+01, 4.24264050e+00, 0., 0.,
          1.92139258e+03, 3.85478906e+03, 9.46071973e+03, 1.12909802e+03,
          0., 4.48432831e+02, 0., 0., 2.04083313e+02, 9.81053467e+02,
          1.60216577e+03, 3.11623242e+03, 3.82452490e+03, 3.05757397e+03,
          2.36966309e+03, 2.98012280e+03, 2.63882153e+03, 3.70223535e+03,
          1.77641284e+03, 2.03604968e+03, 2.31677783e+03, 3.92794214e+03,
          1.92421402e+02, 0., 0., 5.30827295e+03, 1.57651111e+03,
          1.64550513e+03, 2.03783545e+03, 3.61496558e+03, 3.62215424e+02,
          2.96984844e+01, 1.91637280e+03, 3.74452490e+03, 6.45741992e+03,
          2.88044897e+03, 5.02152100e+03, 2.70625928e+03, 0., 0.,
          3.10177368e+02 ]
      - [ 2.35539331e+03, 6.05690039e+03, 4.72966504e+03, 0., 0., 0., 0.,
          0., 2.00117896e+03, 1.23170667e+03, 2.01298535e+03, 0., 0.,
          2.16633331e+02, 0., 0., 1.13402031e+04, 78., 5.75293579e+02,
          0., 0., 0., 1.78981116e+03, 1.99803857e+03, 2.15244043e+03,
          4.74007666e+03, 4.10121918e+01, 0., 0., 0., 0., 0., 0.,
          5.34197144e+02, 1.58425305e+03, 1.81700403e+03, 8.22709534e+02,
          1.43035059e+03, 2.36564941e+03, 4.24912549e+03, 1.09526221e+03,
          1.25376099e+03, 1.73791418e+03, 1.62200928e+03, 8.09499817e+02,
          4.30376556e+02, 5.21376343e+02, 1.90055444e+03, 2.18527173e+03,
          1.54336133e+03, 2.94522803e+03, 3.05633130e+03, 0., 0.,
          5.97467163e+02, 1.75002466e+03, 1.63624597e+03, 3.51008374e+03,
          4.37562500e+03, 4.05577563e+03, 0., 0., 0., 0. ]
      - [ 2.50317676e+03, 4.55077051e+03, 2.03942468e+03, 2.04124097e+03,
          0., 0., 0., 0., 7.51149780e+02, 3.37448730e+03, 2.23181274e+03,
          0., 0., 0., 7.30068512e+01, 1.22122887e+02, 5.97397656e+03,
          7.73386475e+02, 2.12548141e+02, 0., 0., 0., 7.73530029e+02,
          2.67185547e+03, 1.93308984e+03, 2.03121362e+03, 8.77498596e+02,
          1.21593689e+02, 0., 0., 0., 1.34678833e+03, 0., 0., 0.,
          1.10563440e+03, 1.43205481e+03, 1.48584729e+03, 2.35377710e+03,
          3.37069409e+03, 8., 3.81837654e+01, 0., 1.44881958e+03,
          1.87281995e+03, 5.67143738e+02, 3.73703583e+02, 1.97251929e+03,
          1.61616101e+03, 1352., 1.46873230e+03, 1.20377271e+03, 0., 0.,
          2.36602692e+02, 2.21872632e+03, 1.68591919e+03, 1.55175623e+03,
          1.47781311e+03, 2.96042188e+03, 0., 0., 0., 1.53712903e+03 ]
      - [ 3.46501367e+03, 1.34595935e+03, 6.60979443e+03, 1.70598438e+03,
          0., 0., 0., 1.12285347e+02, 1.52391113e+03, 1.74248218e+03,
          2.58743945e+03, 0., 0., 0., 0., 0., 1.97794385e+03,
          2.92381641e+03, 0., 0., 0., 0., 1.63301038e+03, 2.61687646e+03,
          2.74994238e+03, 2.50196509e+03, 1.90501978e+03, 2.75993835e+02,
          0., 0., 8.57922302e+02, 1.78438159e+03, 6., 0., 0.,
          1.78088745e+03, 3.47592578e+03, 1.86615088e+03, 3.87262012e+03,
          1.38565894e+03, 2.26221130e+02, 3.79230804e+02, 2.18549759e+02,
          2.48892358e+03, 2.58320557e+03, 8.99975830e+02, 6.05607117e+02,
          1.40712146e+03, 9.86928955e+02, 4.63864160e+03, 2.69183899e+02,
          0., 0., 0., 3.00946808e+02, 2.19440283e+03, 2.07789209e+03,
          2.01601892e+03, 2.65046582e+03, 1.13207764e+03, 3.84783051e+02,
          7.44324158e+02, 8.30753418e+02, 1.94485461e+03 ]
      - [ 4.82198340e+03, 2.49430933e+03, 3.75420874e+03, 1.94534192e+03,
          0., 2.08403458e+02, 1.04995239e+02, 0., 2.93476758e+03,
          3.87561426e+03, 1.50599597e+03, 7.47402161e+02, 0., 0., 0.,
          2.39102493e+02, 9.28185254e+03, 2.54544189e+03, 1.05901233e+03,
          0., 0., 0., 5.28340820e+02, 0., 9.76690918e+02, 3.73657397e+03,
          2.20989502e+03, 0., 0., 0., 8.36642090e+02, 0., 1.67850659e+03,
          2.73037872e+02, 6.03118591e+02, 2.12776871e+02, 9.04971985e+02,
          1.68889026e+03, 1.76046716e+03, 3.46491211e+03, 1.67081750e+03,
          2.47951736e+02, 5.67714661e+02, 7.63388489e+02, 0., 0.,
          8.30252136e+02, 3.65515918e+03, 1.51785596e+03, 3.08652295e+03,
          3.45889746e+03, 7.39411926e+02, 0., 0., 2.34887207e+02, 0.,
          2.36679761e+03, 2.67716260e+03, 5.18433301e+03, 2.43674219e+03,
          0., 0., 7.21110249e+00, 0. ]
      - [ 2.58622827e+03, 1.35120398e+03, 3.68913989e+03, 1.11890308e+03,
          0., 0., 0., 0., 2.82446442e+02, 0., 3.07626404e+02,
          1.37295303e+02, 6.84527344e+02, 4.42307434e+02, 1.45247156e+03,
          2.30653418e+03, 1.78259824e+04, 0., 0., 0., 0., 0., 0.,
          3.77523743e+02, 2.11870239e+03, 2.19686963e+03, 0., 0., 0., 0.,
          0., 0., 1.01580615e+03, 0., 0., 1.78393396e+03, 1.86694971e+03,
          1.09927124e+03, 4.77416748e+03, 2.53219238e+03, 2.25883569e+03,
          3.21422876e+03, 4.95889099e+02, 0., 7.43462646e+02,
          3.84096344e+02, 4.37383728e+02, 1.47025793e+03, 1.80353479e+03,
          2.66313525e+03, 3.79987329e+03, 0., 3.33766365e+01,
          9.48261566e+01, 2.60863953e+02, 1.99819263e+03, 5.93210791e+03,
          4.08822388e+03, 1.83892419e+03, 2.77923804e+03, 4.79416321e+02,
          0., 6.00333252e+01, 1.50484290e+03 ]
      - [ 3.13355542e+03, 2.55960645e+03, 3.75615387e+02, 1.16332800e+03,
          0., 0., 0., 0., 2.63604932e+03, 1.25607861e+03, 3.32929413e+02,
          0., 0., 0., 0., 1.01805762e+03, 9.92299902e+03, 0., 0., 0., 0.,
          0., 5.53000916e+02, 0., 8.48863159e+02, 6.76938660e+02, 0., 0.,
          0., 0., 0., 0., 1.03997876e+03, 0., 3.49284973e+01, 0.,
          6.54987488e+02, 1.82396375e+03, 1.72797534e+03, 2.21488965e+03,
          6.56002991e+02, 3.00734985e+02, 4.87165283e+02, 3.78208923e+02,
          0., 0., 1.23583887e+03, 1.07522668e+03, 1.50374243e+03,
          2.73467383e+03, 6.13098694e+02, 5.33810852e+02, 0., 0.,
          5.65685415e+00, 0., 3.66898584e+03, 2.87221899e+03,
          1.77661060e+03, 7.38075867e+02, 0., 0., 0., 0. ]
      - [ 3.64108862e+03, 3.89912891e+03, 1.78748621e+03, 2.88987549e+03,
          2.19842212e+03, 0., 2.12132034e+01, 0., 4.61289490e+02,
          8.94186768e+02, 7.34418152e+02, 1.57421802e+03, 0.,
          1.94605884e+03, 4.05384277e+02, 3.60773956e+02, 1.43995898e+04,
          3.53553391e+01, 0., 0., 0., 0., 1.17678369e+03, 3.09197070e+03,
          3.96471997e+03, 3.88761353e+03, 0., 0., 0., 0., 0.,
          9.63016129e+01, 3.35216370e+02, 0., 1.74774139e+02,
          5.30693909e+02, 2.10463574e+03, 2.57481616e+03, 4.82755664e+03,
          4.70957471e+03, 3.37351349e+02, 0., 0., 0., 3.03579395e+03,
          6.18444824e+02, 1.34164502e+03, 5.83596863e+02, 3.46064526e+03,
          1.76343384e+03, 1.72702649e+03, 1.97825513e+03, 0., 0.,
          1.14434883e+02, 3.43336084e+03, 3.48960107e+03, 4.34656152e+03,
          3.18980859e+03, 2.76852100e+03, 1.15188257e+03, 0., 0.,
          1.71685437e+03 ]
      - [ 3.12735229e+02, 6.45998779e+03, 6.64562158e+03, 1.91192749e+03,
          0., 0., 0., 3.96232262e+01, 0., 1.94955139e+03, 1.18073682e+03,
          8.08810730e+02, 1.54769434e+03, 1.26590698e+03, 0., 0.,
          7.97717236e+03, 4.93707959e+03, 1.39554358e+03, 3.85063110e+02,
          3.68302826e+02, 0., 9.61255737e+02, 7.54176941e+02,
          1.17544849e+03, 4.68248633e+03, 3.20283301e+03, 0.,
          8.41189575e+02, 2.14401505e+02, 8.81028931e+02, 1.00163788e+03,
          0., 0., 0., 3.11441138e+03, 1.53668762e+03, 3.30941577e+03,
          5.55039746e+03, 8.15188843e+02, 2.60570850e+03, 6.90367249e+02,
          1.68728467e+03, 1.66972546e+03, 1.33327637e+03, 1.78255811e+03,
          1.12329224e+03, 3.99542236e+02, 2.93237744e+03, 2.60451831e+03,
          1.09126514e+03, 4.04912622e+03, 5.40034973e+02, 0.,
          6.10074951e+02, 2.39054736e+03, 3.03925269e+03, 2.43370483e+03,
          4.68048096e+03, 5.01507422e+03, 26., 8.63712921e+01,
          5.93969688e+01, 1.44281226e+03 ]
      - [ 6.39044434e+03, 3.97740796e+03, 1.35033655e+03, 9.55931396e+02,
          7.91854797e+02, 1.46037122e+03, 0., 1.30297925e+03,
          8.05358838e+03, 0., 0., 0., 0., 0., 0., 4.00510895e+02,
          1.32664619e+04, 2.38994942e+01, 8.36779556e+01, 0., 0., 0., 0.,
          0., 6.36297314e+03, 3.65248291e+03, 1.62935577e+02, 0., 0., 0.,
          0., 0., 3.37116919e+03, 4.18502075e+02, 1.25286365e+03,
          3.26459778e+02, 1.17809631e+03, 2.32770166e+03, 2.26890894e+03,
          2.65225098e+03, 3.25916406e+03, 5.82897400e+02, 2.69072475e+01,
          0., 0., 0., 1.88714587e+03, 2.80113428e+03, 1.43763184e+03,
          2.85738159e+03, 3.81971704e+03, 0., 0., 3.36154709e+01, 0., 0.,
          5.33700732e+03, 4.15232861e+03, 3.37674048e+03, 3.84062573e+03,
          0., 0., 0., 0. ]
      - [ 3.67045605e+03, 4.67382422e+03, 8.02428223e+03, 1.86711877e+03,
          0., 0., 0., 1.57835358e+02, 1.48690332e+03, 1.70777637e+03,
          4.73488428e+03, 0., 0., 0., 0., 0., 5.64071729e+03,
          3.15617383e+03, 1.71209204e+03, 1.13584912e+03, 3.00592743e+02,
          0., 0., 5.82477478e+02, 3.83035767e+03, 7.51366553e+03,
          1.29043518e+03, 3.11126976e+01, 7.92470825e+02, 0., 0., 0.,
          1.85769409e+03, 7.07517639e+02, 4.71425507e+02, 8.46275330e+02,
          1.49673291e+03, 3.30912769e+03, 5.58001025e+03, 5.24218359e+03,
          1.37246191e+03, 1.56800586e+03, 1.32341626e+03, 3.80087921e+02,
          0., 6.45479309e+02, 3.06992847e+03, 2.94976001e+03, 0.,
          3.26525586e+03, 1.34389722e+03, 3.08949487e+03, 4.06276123e+03,
          8.98109131e+01, 1.13137083e+01, 4.59009796e+02, 4.02762866e+03,
          4.62116357e+03, 3.61208350e+03, 8.10194336e+03, 9.10584183e+01,
          0., 0., 0. ]
      - [ 5.35132275e+03, 9.19706055e+03, 1.40902856e+03, 6.48063843e+02,
          0., 1.20830460e+01, 0., 0., 0., 2.37928574e+02, 9.20977707e+01,
          0., 10., 0., 0., 0., 1.02009131e+04, 0., 0., 0., 0., 0.,
          7.19684692e+02, 2.83842383e+03, 5.23609912e+03, 1.96779248e+03,
          5.10664398e+02, 0., 0., 0., 0., 0., 0., 0., 0., 0.,
          2.05294580e+03, 1.48939038e+03, 8.14340088e+03, 5.40489697e+03,
          1.72908264e+02, 5.93976501e+02, 2.44806046e+02, 0.,
          8.73791748e+02, 0., 3.80573273e+02, 0., 0., 5.34222778e+02,
          1.50416980e+03, 8.02653870e+02, 0., 0., 5.67133789e+02,
          2.91171973e+03, 4.52472412e+03, 3.09085742e+03, 5.92629102e+03,
          3.57244458e+03, 0., 0., 3.71534821e+02, 6.43000793e+02 ]
      - [ 2.77398096e+03, 3.86420215e+03, 3.91983887e+03, 4.01834644e+03,
          0., 0., 0., 0., 0., 2.22483301e+03, 1.59450562e+03,
          1.47863257e+03, 0., 0., 2.82842708e+00, 0., 1.25810332e+04,
          7.07106781e+00, 0., 0., 0., 0., 5.17820435e+02, 4.85424365e+03,
          2.55751636e+03, 2.95359229e+03, 1.64146271e+02, 0., 0., 0., 0.,
          1.70710678e+01, 2.01717621e+02, 0., 1.87378723e+03,
          1.01843591e+03, 1.35095764e+03, 2.57638135e+03, 1.30037585e+03,
          7.23319971e+03, 3.16950775e+02, 1.08452751e+02, 0., 0.,
          6.09066528e+02, 1.21575610e+03, 1.35126758e+03, 9.19535706e+02,
          1.31569543e+03, 1.32732007e+03, 2.19569263e+03, 0., 0., 0.,
          9.92208633e+01, 4.74908643e+03, 2.03759985e+03, 2.78628198e+03,
          2.52441504e+03, 4.05769141e+03, 7.07106781e+00, 0., 0.,
          2.36896533e+03 ]
      - [ 6.08152954e+02, 2.84871436e+03, 8.12324658e+03, 3.32903491e+03,
          0., 0., 0., 0., 1.56894867e+02, 1.10992285e+03, 1.14377283e+03,
          2.00132599e+02, 0., 0., 1.49702319e+03, 2.79969434e+03,
          1.41455029e+04, 4.38406219e+01, 0., 0., 0., 0., 7.67548096e+02,
          3.67295190e+03, 3.72023853e+03, 7.10798340e+03, 1.38499719e+03,
          0., 0., 0., 4.24137115e+02, 6.48546326e+02, 0., 4.95782204e+01,
          0., 2.01797266e+03, 3.24781689e+03, 5.57550293e+03,
          4.11017139e+03, 1.97124976e+03, 3.10883594e+03, 1.12357739e+03,
          0., 0., 8.52976135e+02, 1.46314978e+03, 5.91797974e+02,
          3.23109894e+01, 2.23793164e+03, 2.05280957e+03, 8.33576660e+02,
          1.97788135e+03, 1.85326736e+02, 0., 1.98010101e+02,
          3.89574146e+03, 2.98551416e+03, 4.95120459e+03, 5.26410693e+03,
          2.72662891e+03, 1.92031689e+03, 1.07095435e+03, 1.00790234e+03,
          1.97524988e+03 ]
      - [ 2.68400146e+03, 6.25797119e+03, 5.95778711e+03, 1.87146570e+03,
          0., 0., 0., 0., 1.83790967e+03, 2.96295776e+03, 2.29962451e+03,
          2.05197693e+02, 0., 9.54148865e+01, 0., 0., 9.74145898e+03,
          1.41421354e+00, 0., 0., 1.69754272e+03, 2.08355469e+02,
          1.45718225e+03, 3.71877173e+03, 2.13891479e+03, 6.39339453e+03,
          1.85542130e+02, 0., 0., 0., 7.07672241e+02, 0., 1.39769788e+03,
          0., 1.16517151e+03, 0., 6.03072607e+03, 4.19731396e+03,
          7.49040100e+02, 2.16072583e+03, 3.78470361e+03, 7.60452515e+02,
          3.34212494e+02, 2.58622974e+03, 8.12009888e+02, 6.09777039e+02,
          1.04293042e+03, 2.15365161e+03, 2.69907422e+03, 1.29926794e+03,
          1.28134851e+03, 7.95181763e+02, 2.01178027e+03, 2.68923767e+02,
          1.39489001e+03, 1.45062256e+03, 1.82370667e+03, 4.88381104e+03,
          2.82563696e+03, 3.77193994e+03, 1.82544299e+03, 0.,
          2.51765762e+02, 1.50436084e+03 ]
      - [ 4.89146338e+03, 4.03950122e+03, 1.44277661e+03, 9.28040588e+02,
          0., 0., 0., 0., 0., 4.39829498e+02, 0., 0., 0., 0.,
          1.94270325e+02, 3.76107764e+03, 1.74381094e+04, 0., 0., 0., 0.,
          0., 1.41173645e+02, 9.52680435e+01, 0., 9.89949512e+00, 0., 0.,
          0., 0., 0., 0., 0., 0., 0., 6.89492569e+01, 9.12134277e+02,
          1.48146997e+03, 1.95227905e+03, 1.04648057e+04, 4.66921173e+02,
          0., 0., 0., 2.65699066e+02, 6.67216797e+02, 0., 0.,
          1.40481274e+03, 3.58022339e+02, 3.12166626e+02, 3.56252716e+02,
          0., 0., 2.23738144e+02, 5.32850488e+03, 5.16102734e+03,
          1.45039941e+03, 1.36056860e+03, 2.44711670e+03, 90., 0.,
          4.19447266e+02, 4.29516022e+02 ]
      - [ 5.28478333e+02, 7.20924707e+03, 5.59131104e+03, 1.88724072e+03,
          1.08178601e+03, 7.80371704e+02, 1.97989902e+01, 0., 0.,
          4.40986475e+03, 2.27022559e+03, 0., 0., 0., 0., 0.,
          1.29312871e+04, 3.03675446e+02, 0., 0., 0., 0., 8.91529053e+02,
          3.21484326e+03, 2.31242529e+03, 7.39576416e+03, 0., 0., 0., 0.,
          0., 1.00909863e+03, 1.81924316e+03, 9.97400391e+02,
          1.63700916e+03, 1.42535474e+03, 1.28715955e+03, 1.77383923e+03,
          2.98453809e+03, 7.33081592e+03, 12., 0., 1.54021497e+03,
          5.94810867e+01, 1.05990562e+02, 7.58221619e+02, 2.78004980e+03,
          9.04682251e+02, 3.64601636e+03, 2.07463916e+03, 1.56543994e+03,
          1.42901294e+03, 0., 0., 2.88444099e+01, 3.53067163e+03,
          1.94711206e+03, 6.12435547e+03, 1.57476990e+03, 2.84270361e+03,
          2.86621729e+03, 0., 0., 3.80189423e+02 ]
      - [ 1.82328967e+03, 6.99231641e+03, 6.15048193e+03, 9.49210205e+01,
          0., 0., 0., 0., 1.66695239e+03, 5.44141541e+02, 9.39229431e+02,
          5.87799255e+02, 1.89452173e+03, 7.40270233e+01, 0.,
          8.40951843e+01, 1.07802686e+04, 5.30094337e+01, 0., 0., 0., 0.,
          2.77470410e+03, 5.50123193e+03, 4.85966064e+03, 3.91627734e+03,
          0., 0., 0., 8.30541992e+01, 0., 3.35033936e+02, 0.,
          8.48646011e+01, 0., 2.02164087e+03, 2.00360229e+03,
          2.06115039e+03, 5.87192285e+03, 2.08368164e+03, 3.90710693e+03,
          4.56508484e+01, 8.28009644e+01, 0., 1.57695908e+02,
          1.63372131e+03, 2.70614990e+03, 0., 1.77002823e+02,
          1.32094873e+03, 1.20565137e+03, 2.94410986e+03, 0., 0.,
          2.48007355e+02, 4.56283057e+03, 3.88305151e+03, 3.01871069e+03,
          2.16267578e+03, 3.07973242e+03, 1.68087781e+03, 3.03772522e+02,
          1.76713965e+03, 5.02419043e+03 ]
      - [ 4.94986621e+03, 4.07131616e+03, 4.41386182e+03, 0., 0., 0., 0.,
          0., 4.37064941e+03, 7.84967041e+02, 0., 0., 0., 0., 0.,
          4.88447113e+02, 1.77185039e+04, 0., 0., 0., 0., 0.,
          5.79116516e+02, 2.60768108e+01, 1.11973914e+03, 3.30269073e+02,
          0., 0., 0., 0., 0., 0., 1.30777881e+03, 0., 3.71712280e+02,
          1.60112085e+03, 1.60137952e+03, 1.81076367e+03, 2.33455933e+03,
          4.69890723e+03, 2.98141992e+03, 3.54066772e+02, 4.76030945e+02,
          6.31585327e+02, 9.37837524e+02, 0., 1.16775403e+03,
          2.02518237e+03, 2.66162256e+03, 1.15304382e+03, 1.11001465e+03,
          1.11824280e+03, 4.73026428e+02, 0., 8.72353134e+01,
          1.67191602e+03, 6.98437988e+03, 1.67822546e+03, 1.85012085e+03,
          1.65147986e+03, 2.03954138e+03, 0., 0., 0. ]
      - [ 2.77140137e+03, 1.85507532e+03, 4.01000586e+03, 3.17239648e+03,
          1.62684338e+03, 0., 0., 0., 1.34164160e+03, 1.74230750e+03,
          1.52733936e+03, 2.03168164e+03, 7.74765015e+02, 8.03853210e+02,
          4.42574249e+02, 0., 6.90574365e+03, 8.46221008e+02,
          4.48447266e+02, 2.90964111e+03, 0., 0., 0., 0., 1.13137083e+01,
          3.05635034e+03, 5.77704248e+03, 1.49649060e+03, 0., 0.,
          1.33689148e+03, 1.53273206e+03, 0., 0., 0., 0., 5.10064600e+03,
          7.93629150e+03, 1.37137231e+03, 5.94516602e+02, 2.45589081e+02,
          0., 0., 0., 4.29431934e+03, 4.02425977e+03, 0., 3.39106323e+02,
          0., 7.06508301e+02, 9.96287781e+02, 6.23224316e+03, 0., 0., 0.,
          0., 1.66156018e+03, 1.81590247e+03, 5.50798340e+03,
          6.10661084e+03, 40., 0., 1.72286697e+02, 1.58566736e+03 ]
      - [ 1.88386450e+03, 8.88099219e+03, 5.25148584e+03, 1.98999194e+03,
          0., 0., 0., 0., 1.94833267e+02, 5.11408936e+03, 2.91178931e+03,
          9.96393509e+01, 0., 0., 0., 0., 6.17036572e+03, 2.24811865e+03,
          4.10352100e+03, 2.08708038e+02, 1.10448318e+02, 8.71222107e+02,
          0., 1.04798157e+03, 8.72877808e+02, 4.50249707e+03,
          6.99113086e+03, 0., 1.98641919e+03, 0., 0., 0., 0., 0., 0.,
          1.79567480e+03, 3.33283228e+03, 3.54928101e+03, 7.05393457e+03,
          1.52103076e+03, 1.01242287e+02, 4.35660400e+01, 2.88330981e+03,
          9.71662476e+02, 2.12429541e+03, 9.13391846e+02, 1.01750598e+03,
          3.79692090e+03, 1.39888721e+03, 1.20000513e+03, 4.15567090e+03,
          5.07122803e+03, 4.11111664e+02, 1.97644287e+02, 0.,
          1.66502661e+03, 1.55410889e+03, 2.29343115e+03, 1.15665273e+04,
          3.02186572e+03, 120., 0., 0., 0. ]
      - [ 4.97795410e+03, 2.30543970e+03, 1.93985938e+03, 1.26986609e+03,
          0., 0., 0., 4.56631165e+02, 3.76225220e+03, 1.02071655e+03,
          7.48024048e+02, 2.88721313e+02, 4.61735840e+01, 0., 0.,
          1.06075447e+02, 1.23515088e+04, 0., 0., 0., 0., 0.,
          3.56967773e+02, 2.77573560e+03, 1.04451929e+03, 1.40138623e+03,
          0., 0., 0., 0., 0., 0., 0., 0., 4.39089966e+01, 1.52181665e+03,
          1.48323218e+03, 5.87104248e+02, 2.05648560e+03, 5.36409277e+03,
          6.53902710e+02, 0., 2.32723022e+02, 0., 1.77056763e+03,
          9.08723022e+02, 2.19544983e+01, 3.90188721e+03, 2.58282861e+03,
          1.14227710e+03, 7.50575745e+02, 4.57260284e+02, 8.07327637e+02,
          0., 1.20320198e+02, 1.21005432e+03, 3.86584912e+03,
          1.54626904e+03, 1.57744128e+03, 9.00167908e+02, 1.36164294e+03,
          8.12157593e+01, 6.52051544e+01, 8.51976501e+02 ]
      - [ 7.21985791e+03, 2.92919263e+03, 2.62391602e+03, 8.63366394e+02,
          3.78979028e+03, 7.99249649e+01, 0., 0., 2.19979272e+03,
          1.48137183e+03, 4.64754730e+02, 0., 2.70462329e+03,
          1.15923438e+03, 0., 0., 7.04477197e+03, 4.12211279e+03,
          2.38405688e+03, 3.53553391e+01, 1.23369362e+02, 0., 0.,
          7.37292786e+02, 8.18631897e+02, 6.61174316e+03, 5.84682471e+03,
          0., 6.96548096e+02, 0., 1.02963782e+03, 1.17636768e+03, 0., 0.,
          9.79489670e+01, 4.51933643e+03, 1.83507129e+03, 4.44362012e+03,
          3.90872729e+03, 3.31537842e+03, 2.54933228e+03, 2.01216187e+03,
          1.28053271e+03, 6.08126648e+02, 7.43732483e+02, 3.43652954e+03,
          2.05825122e+03, 2.31472461e+03, 1.60382251e+03, 2.74643774e+03,
          3.34004517e+03, 5.20575684e+03, 6., 0., 0., 1.25306848e+03,
          1.42938599e+03, 5.42698096e+03, 4.78665137e+03, 7.00794385e+03,
          380., 0., 7.07106781e+00, 1.62508496e+03 ]
      - [ 9.35236328e+03, 2.84798218e+03, 1.01285901e+03, 1.95762671e+03,
          0., 0., 0., 2.90172367e+01, 0., 2.20116040e+03, 0., 0.,
          5.89406471e+01, 0., 0., 0., 1.45795381e+04, 3.41421366e+00,
          1.50153259e+02, 0., 0., 0., 0., 1.67957373e+03, 3.26014136e+03,
          5.00381982e+03, 0., 0., 0., 0., 0., 0., 0., 0., 0., 0.,
          2.86812085e+03, 3.75157666e+03, 6.06620166e+03, 2.69764722e+03,
          0., 3.95603735e+03, 1.40230750e+03, 0., 7.99792603e+02,
          1.16750537e+03, 1.75649536e+03, 1.27670679e+03, 3.00477979e+03,
          5.43228076e+03, 9.66082031e+02, 6.05643616e+02, 1.26801306e+03,
          0., 0., 1.95357385e+03, 3.27052246e+03, 8.95878027e+03,
          1.14914819e+03, 2.30329565e+03, 1.79484485e+03, 0., 0., 0. ]
      - [ 6.31627832e+03, 6.78377002e+03, 1.50697021e+03, 8.38168152e+02,
          0., 0., 0., 0., 0., 3.40007056e+03, 1.82439026e+02, 0., 0., 0.,
          0., 1.79354385e+02, 1.38068564e+04, 0., 0., 0., 0., 0.,
          9.87250061e+02, 5.01260400e+03, 1.51843762e+03, 4.05973071e+03,
          1.50938156e+02, 0., 0., 4.24264050e+00, 0., 0., 0., 0., 0., 0.,
          8.76751160e+02, 1.59351660e+03, 8.43547656e+03, 4.83205908e+03,
          0., 0., 1.65456995e+03, 4.49697662e+02, 2.65198029e+02,
          9.46492188e+02, 1.38054297e+03, 1.45216089e+03, 1.38229114e+03,
          1.70670569e+03, 1.88113672e+03, 1.63192847e+03, 0., 0.,
          5.61407166e+02, 4.57885156e+03, 1.48200854e+03, 3.23272314e+03,
          2.23319019e+03, 5.20274268e+03, 0., 3.47508270e+02, 0.,
          2.89210498e+03 ]
      - [ 3.96426050e+03, 7.76683838e+03, 0., 0., 0., 0., 0., 0.,
          1.02900830e+03, 0., 0., 0., 0., 0., 0., 2.21531021e+02,
          1.50444502e+04, 0., 0., 0., 0., 0., 7.63537598e+02,
          8.57414551e+02, 2.63503857e+03, 9.31692932e+02, 0., 0., 0., 0.,
          0., 0., 0., 9.46446533e+02, 1.56249634e+03, 0., 1.58897009e+03,
          7.27377319e+02, 5.69516943e+03, 3.09752026e+03, 3.52634814e+03,
          7.76865417e+02, 1.04708960e+03, 0., 0., 5.18808228e+02,
          6.61508850e+02, 4.27338257e+02, 1.35128955e+03, 1.62480371e+03,
          0., 7.59876282e+02, 1.51750122e+03, 0., 3.72209564e+02,
          3.40801855e+03, 5.72612695e+03, 2.08514600e+03, 2.73817358e+03,
          2.41075610e+03, 1.59961438e+03, 1.60312195e+02, 6.33618164e+02,
          3.67144458e+03 ]
      - [ 2.02585608e+03, 5.11542285e+03, 4.11404980e+03, 1.96902698e+03,
          0., 2.06813919e+02, 1.53421606e+03, 1.78403613e+03,
          1.95576065e+02, 1.65023108e+03, 1.41187891e+03, 0., 0., 0., 0.,
          3.33723022e+03, 1.56662314e+04, 3.16227760e+01, 5.37239258e+02,
          0., 0., 0., 0., 0., 7.09137695e+03, 5.90199756e+03,
          1.83934769e+02, 0., 0., 0., 0., 0., 1.18693140e+03, 0., 0.,
          1.97470728e+03, 1.99982898e+03, 5.71647803e+03, 2.61833838e+03,
          5.53349463e+03, 4., 2.82842708e+00, 7.29859131e+02,
          3.42094019e+03, 9.52631104e+02, 1.06853149e+03, 0.,
          3.39522388e+03, 5.04888086e+03, 2.77909717e+03, 1.19887671e+03,
          8.31534668e+02, 1.86072473e+03, 0., 1.32378235e+02,
          1.21655245e+01, 7.09593896e+03, 6.61603711e+03, 2.50337964e+03,
          1.79759436e+03, 1.84770313e+03, 0., 0., 0. ]
      - [ 8.82791443e+02, 4.16023682e+03, 4.90953271e+03, 3.57700391e+03,
          0., 0., 0., 2.03022171e+02, 0., 8.53212280e+02, 2.63177051e+03,
          2.74451172e+03, 0., 3.24607452e+02, 0., 0., 7.52283936e+03,
          2.62992773e+03, 1.37765796e+03, 4.38406219e+01, 4.08717499e+02,
          0., 0., 0., 2.36909717e+03, 4.26355811e+03, 2.41565649e+03,
          7.34660217e+02, 1.41421354e+00, 0., 1.44836572e+03,
          7.72706909e+02, 0., 0., 0., 0., 5.96878809e+03, 4.30087549e+03,
          3.25184521e+03, 1.30432642e+03, 0., 5.65685415e+00,
          1.41428421e+02, 5.51881934e+03, 8.84553040e+02, 9.22144775e+02,
          1.99925818e+03, 8.46225708e+02, 2.16970972e+03, 1.51420532e+03,
          2.15978955e+03, 2.45232300e+03, 1.41045703e+03, 50., 0., 0.,
          4.17092871e+03, 1.87956750e+03, 3.36836768e+03, 3.83701807e+03,
          1.25019385e+03, 0., 5.98371964e+01, 2.30867935e+02 ]
      - [ 4.21907129e+03, 3.86564258e+03, 5.02800385e+02, 8.45808105e+02,
          1.46802661e+03, 0., 1.05990570e+02, 0., 2.91727563e+03, 0., 0.,
          0., 0., 0., 1.97279248e+03, 7.79286072e+02, 1.69084043e+04, 0.,
          0., 0., 0., 0., 8.55403992e+02, 4.17175568e+02, 1.46117480e+03,
          1.48420251e+03, 0., 0., 0., 0., 0., 0., 0., 0., 0., 0., 0.,
          2.79151025e+03, 4.37041602e+03, 4.39307422e+03, 0., 0.,
          1.00811804e+03, 4.62041107e+02, 0., 6.96772827e+02,
          6.48020081e+02, 2.13849463e+03, 2.85665967e+03, 1.66650909e+02,
          1.45633960e+03, 1.48055151e+03, 0., 0., 3.42924957e+01,
          2.23437646e+03, 3.95194873e+03, 2.40788477e+03, 1.47829346e+03,
          3.02977832e+03, 0., 0., 0., 1.97828027e+03 ]
      - [ 4.62720068e+03, 3.26977051e+03, 9.72773438e+02, 1.26813745e+03,
          1.58398239e+02, 0., 5.47424866e+02, 8.56002319e+02,
          3.57174756e+03, 4.85571838e+02, 0., 0., 0., 0., 7.21476257e+02,
          1.03365918e+03, 1.32208154e+04, 0., 0., 0., 0., 0.,
          9.46357300e+02, 1.15272144e+03, 4.96389221e+02, 1.37763220e+03,
          0., 0., 0., 0., 0., 0., 0., 0., 0., 8.52877426e+01,
          1.30451758e+03, 1.47154272e+03, 4.92865723e+03, 4.59716211e+03,
          4.14004822e+02, 7.72297241e+02, 4.84148712e+01, 2.40333115e+02,
          0., 9.18812805e+02, 1.77935889e+03, 4.27992285e+03,
          1.40519238e+03, 1.69720947e+03, 1.25606030e+03, 4.38036530e+02,
          1.42583154e+03, 3.82800201e+02, 4.41921387e+02, 5.25441650e+02,
          4.40042676e+03, 4.17535156e+03, 1.53492383e+03, 1.21965759e+03,
          1.88724841e+03, 0., 0., 8.73265259e+02 ]
      - [ 3.92655615e+03, 4.20081836e+03, 3.81544507e+03, 2.03376233e+03,
          2.98694604e+03, 8.71027893e+02, 0., 3.39320862e+02,
          7.31312500e+02, 8.57848450e+02, 1.74826465e+03, 5.59710889e+03,
          0., 0., 0., 0., 8.22488379e+03, 2.04716504e+03, 3.88515137e+02,
          3.52498975e+03, 0., 0., 0., 4.60434570e+01, 5.08557098e+02,
          3.73167700e+03, 7.77565430e+03, 8.07105896e+02, 1.51937842e+03,
          0., 1.42377661e+03, 1.25724219e+03, 0., 0., 0., 0.,
          7.31936914e+03, 5.58632422e+03, 3.14748413e+03, 1.55762109e+03,
          0., 0., 0., 1.70501831e+03, 2.46203198e+03, 3.87963770e+03,
          1.59615356e+03, 0., 1.58537256e+03, 6.58764282e+02,
          9.05920532e+02, 6.78860107e+03, 6.43062988e+02, 0., 0.,
          1.74714905e+03, 2.23906763e+03, 1.25029907e+03, 6.88298242e+03,
          7.10452295e+03, 1.76815353e+02, 0., 1.69067291e+02,
          1.70473523e+03 ]
      - [ 8.75854883e+03, 1.14001025e+03, 1.39977771e+03, 7.53330017e+02,
          1.66842725e+03, 2.76366187e+03, 1.27279224e+01, 3.05722107e+02,
          4.34767090e+03, 1.61946387e+03, 3.85319031e+02, 5.52342285e+02,
          0., 6.18820801e+02, 8.12916931e+02, 4.22733948e+02,
          1.21053311e+04, 3.00559082e+03, 1.03142334e+03, 0., 0., 0., 0.,
          1.09444046e+02, 3.37437915e+03, 6.63925244e+03, 3.69926270e+03,
          0., 0., 0., 0., 1.42126703e+01, 0., 5.95227905e+02,
          1.42894012e+02, 4.72545850e+03, 7.48501038e+02, 3.46973926e+03,
          5.00781836e+03, 1.67439148e+03, 0., 1.75413803e+02,
          1.62833350e+03, 1.92380017e+03, 1.03446973e+03, 1.61834766e+03,
          7.33006165e+02, 2.51905273e+03, 1.60750818e+03, 3.39187207e+03,
          3.34195361e+03, 2.40303125e+03, 0., 0., 0., 8.22192154e+01,
          3.39418896e+03, 4.53399365e+03, 6.67936914e+03, 3.63589331e+03,
          0., 0., 0., 1.25195847e+02 ]
      - [ 2.33913770e+03, 4.55827295e+03, 4.76935547e+03, 4.21767529e+03,
          2.97919464e+02, 0., 0., 0., 0., 1.89171890e+02, 2.21468555e+03,
          2.87906543e+03, 4.45764526e+02, 0., 0., 2.82109924e+02,
          7.30973926e+03, 1.29707202e+03, 3.67514990e+03, 4.29094971e+02,
          8.48528099e+00, 0., 0., 2.36033667e+03, 2.29217236e+03,
          8.12639355e+03, 9.28164124e+02, 0., 1.06885474e+03, 0.,
          1.64612048e+03, 9.53721252e+02, 0., 0., 0., 0., 5.63597412e+03,
          4.44133789e+03, 6.06858936e+03, 9.27190552e+02, 0., 0.,
          3.80829346e+02, 3.76391455e+03, 1.66616174e+03, 1.63416296e+03,
          2.12840479e+03, 2.74029205e+02, 2.29531348e+03, 1.09101233e+03,
          2.86304346e+03, 3.29751904e+03, 1.67437207e+03, 0.,
          3.95979805e+01, 3.78289990e+03, 1.79827295e+03, 4.68400928e+03,
          4.46352246e+03, 1.92145996e+03, 3.41961987e+03, 1.28763351e+02,
          1.95167175e+02, 1.79397058e+03 ]
      - [ 4.50829590e+03, 3.55316235e+03, 4.98620654e+03, 6.00818848e+03,
          0., 0., 0., 0., 9.25406921e+02, 2.23192432e+03, 1.92578650e+03,
          1.43561389e+03, 4.07237280e+03, 8.37671051e+01, 0.,
          7.13622375e+02, 1.24731934e+04, 4.10348438e+03, 2.31995898e+03,
          0., 0., 0., 0., 4.27682129e+02, 4.77814941e+02, 9.03488281e+03,
          1.09302283e+03, 0., 4.25205841e+01, 0., 0., 0., 1.48974915e+03,
          0., 0., 0., 7.85865039e+03, 3.77371387e+03, 3.11494849e+03,
          5.33441162e+03, 0., 6.50538254e+01, 6.85253601e+02,
          5.62109668e+03, 2.54429346e+03, 1.18903992e+03, 6.79332031e+02,
          5.84754639e+02, 0., 3.67900098e+03, 8.93376270e+03, 0., 12.,
          0., 0., 7.86729736e+02, 2.74948145e+03, 8.17628857e+03,
          6.14085400e+03, 3.36161084e+03, 12., 0., 0., 0. ]
      - [ 1.75632825e+03, 6.09400293e+03, 2.25819434e+03, 6.27085938e+03,
          0., 0., 0., 0., 0., 0., 7.49348145e+02, 1.61207764e+03,
          8.54906250e+02, 1.73233948e+02, 8.54751434e+01, 0.,
          5.01153711e+03, 3.52347754e+03, 4.09209033e+03, 1.76454089e+03,
          1.19991467e+03, 0., 0., 2.25644214e+03, 1.26935352e+03,
          5.82552393e+03, 5.95901855e+03, 8.17558655e+02, 1.28703857e+03,
          0., 0., 3.13639923e+02, 0., 0., 1.91049728e+02, 3.99430981e+03,
          2.12331055e+03, 6.92694092e+03, 2.90939844e+03, 8.34659424e+02,
          5.60121399e+02, 1.60031250e+02, 2.39199365e+03, 5.75397754e+03,
          1.63787695e+03, 0., 5.72915344e+02, 0., 0., 3.15228198e+03,
          3.87397314e+03, 4.33606543e+03, 1.86709009e+03, 0., 0.,
          2.80122607e+03, 1.64999792e+03, 3.11684546e+03, 5.05076660e+03,
          9.11763770e+03, 138., 0., 0., 8.03990021e+01 ]
      - [ 1.94950586e+03, 1.02489443e+04, 3.10124072e+03, 0., 0., 0., 0.,
          0., 0., 0., 1.55863159e+03, 1.61241125e+03, 0., 7.21110249e+00,
          0., 0., 8.42163867e+03, 6.61969727e+02, 1.97989902e+01, 0.,
          7.53812988e+02, 0., 1.68118726e+03, 4.25492822e+03,
          2.48480981e+03, 2.06511646e+03, 4.95336328e+03, 0., 0.,
          6.47635681e+02, 1.62853467e+03, 7.45381165e+02, 0., 0., 0.,
          2.05704419e+03, 2.88499573e+02, 4.71298291e+03, 8.63969336e+03,
          2.03335254e+03, 0., 0., 1.14017534e+01, 1.75722278e+03,
          3.17413647e+03, 7.36662720e+02, 0., 0., 3.72468597e+02,
          1.40344446e+03, 1.21142932e+03, 3.85277051e+03, 6.26514587e+02,
          0., 3.64769135e+02, 3.96464160e+03, 1.54101587e+03,
          2.73930444e+03, 5.10352930e+03, 3.56140088e+03, 3.20861359e+02,
          7.07277405e+02, 3.23333618e+03, 1.14695190e+03 ]
      - [ 6.43909729e+02, 8.63039648e+03, 1.22818555e+03, 1.41717163e+03,
          1.66026270e+03, 6.66483307e+01, 0., 0., 3.00745728e+02,
          7.93908081e+02, 0., 0., 1.27482898e+03, 2.04563452e+03,
          5.39646545e+02, 8.52768494e+02, 1.58890342e+04, 0., 0., 0., 0.,
          0., 6.03234619e+02, 3.14635229e+03, 1.70712402e+03,
          3.48313794e+03, 0., 0., 0., 0., 0., 0., 7.32354187e+02, 0., 0.,
          0., 2.16453232e+02, 5.91010596e+03, 5.27476367e+03,
          4.13678467e+03, 0., 2.25334009e+03, 0., 1.43974561e+03,
          2.70765594e+02, 0., 6.11138245e+02, 2.55231836e+03,
          2.37465479e+03, 2.19379150e+03, 2.58226685e+03, 1.54624707e+03,
          0., 0., 6.96186676e+01, 3.38506445e+03, 2.48775928e+03,
          6.64067334e+03, 2.65138135e+03, 4.40211084e+03, 0.,
          1.49164337e+02, 0., 1.73972034e+03 ]
      - [ 7.88217468e+02, 7.27876563e+03, 4.67888428e+03, 4.13086572e+03,
          0., 0., 0., 0., 0., 1.64853027e+03, 1.50437109e+03,
          2.01473584e+03, 3.83617651e+03, 2.47693359e+02, 0., 0.,
          7.49592041e+03, 1.45821069e+03, 3.53932910e+03, 1.21650415e+03,
          4.31045227e+01, 0., 0., 4.12159851e+02, 7.74032166e+02,
          3.99081372e+03, 5.30679590e+03, 2.56481152e+03, 1.44437793e+03,
          0., 8.24669617e+02, 0., 0., 0., 0., 0., 3.57417188e+03,
          7.55223389e+03, 3.12147266e+03, 2.31414111e+03, 0.,
          2.45348740e+02, 1.40706226e+03, 2.43758936e+03, 2.30294995e+03,
          2.19491333e+03, 9.47421753e+02, 4.99417664e+02, 1.71451978e+03,
          1.62421204e+03, 2.83572949e+03, 4.84757373e+03, 1.01662422e+02,
          0., 0., 3.51936279e+03, 8.79346558e+02, 1.46090564e+03,
          3.78586084e+03, 8.37939453e+03, 10., 0., 2.82842708e+00, 0. ]
      - [ 3.39603198e+03, 2.22753735e+03, 3.84990356e+03, 3.12731128e+03,
          3.18230933e+03, 4.11526428e+02, 0., 0., 1.41763916e+03,
          3.57357361e+02, 2.60482788e+03, 4.22912891e+03, 0., 0., 0., 0.,
          7.24732471e+03, 1.46786597e+03, 3.79987207e+03, 2.55468903e+02,
          4.57649136e+00, 0., 0., 5.65685415e+00, 2.13665112e+03,
          3.62354541e+03, 5.89072217e+03, 1.44249786e+02, 0., 0.,
          1.22830078e+03, 1.43929785e+03, 0., 0., 0., 2.26737732e+02,
          9.90043652e+03, 1.93889978e+03, 2.98998682e+03, 1.76518054e+03,
          0., 0., 0., 0., 7.88469629e+03, 8.78084595e+02, 9.15553406e+02,
          5.08246643e+02, 8.68371216e+02, 1.27789661e+03, 3.74857495e+03,
          1.42255249e+03, 3.57651465e+03, 0., 1.13137083e+01,
          1.01202766e+02, 3.68270874e+03, 1.57884937e+03, 5.90443555e+03,
          6.48144873e+03, 88., 0., 3.78581123e+01, 8.27133240e+02 ]
      - [ 1.12108960e+03, 3.90028027e+03, 5.97889551e+03, 2.98628784e+03,
          9.12212891e+02, 0., 0., 0., 0., 1.20633850e+03, 2.03881079e+03,
          3.99584839e+03, 0., 0., 1.18152451e+02, 0., 4.90042236e+03,
          1.60073779e+03, 4.70708350e+03, 1.86906418e+02, 2.82842708e+00,
          0., 0., 2.91952911e+02, 1.19510095e+03, 5.61449463e+03,
          4.92319531e+03, 9.70034424e+02, 1.54928003e+03, 0., 0., 0., 0.,
          8.10061722e+01, 0., 0., 8.60936621e+03, 3.56673413e+03,
          1.64424402e+03, 2.09906030e+03, 0., 1.55563488e+01,
          1.11400177e+02, 4.46814209e+03, 2.74935229e+03, 1.56114307e+03,
          5.53352356e+02, 8.31562378e+02, 1.45301685e+03, 8.95399658e+02,
          4.81154492e+03, 2.60858838e+03, 1.61729480e+03, 0., 0.,
          1.48623804e+03, 1.64478284e+03, 3.41212646e+03, 5.64561621e+03,
          5.67454834e+03, 44., 0., 0., 0. ]
      - [ 4.30199805e+03, 2.45677295e+03, 1.41882056e+03, 1.71865125e+03,
          1.33873877e+03, 0., 0., 0., 1.38066431e+03, 3.18192773e+03,
          1.23546838e+03, 3.79051422e+02, 0., 0., 1.47492371e+02,
          3.01120264e+03, 1.45439150e+04, 0., 0., 0., 0., 0., 0.,
          5.81112000e+02, 3.98315698e+03, 1.90592554e+03, 0., 0., 0., 0.,
